
\data\
ngram 1=1913
ngram 2=5266

\1-grams:
-1.083624	</s>
-99	<s>	-0.1116772
-1.795308	a	-0.1249466
-4.277979	abajo	-0.0801116
-4.277979	abismos	-0.04283744
-4.277979	abrazo	-0.08015679
-4.277979	abre	-0.07253912
-4.277979	abrió	-0.04283744
-4.277979	acaba	-0.0602798
-4.277979	acabó	-0.0723712
-2.500372	accesos
-4.277979	acero	-0.0602798
-2.500372	acertamos
-4.277979	aclara	-0.07986405
-4.277979	acogedora	-0.07463266
-4.277979	acompaña	-0.1348822
-4.277979	acompañar	-0.06820562
-4.277979	acompañándonos	-0.07895517
-3.808065	acostumbrados	-0.07130053
-4.277979	actualidad	-0.04283744
-4.277979	actualizada	-0.07738077
-4.277979	actuar	-0.07936853
-3.194235	acuerdo	-0.035186
-2.500372	acusan
-4.277979	adaptan	-0.07321015
-4.277979	adaptar	-0.04283744
-4.277979	adaptativa	-0.07738077
-4.277979	adecuadas	-0.04283744
-3.808065	adelantaba	-0.04217474
-4.277979	adelantar	-0.07738077
-4.277979	adelantase	-0.07321015
-3.585705	adelante	-0.09888474
-2.500372	adelanto
-4.277979	adelanté	-0.07738077
-3.081295	además	-0.06703454
-3.808065	aderezo	-0.07735772
-4.277979	adicional	-0.06950658
-4.277979	adiós	-0.04283744
-4.277979	administraciones	-0.03114303
-4.277979	administración	-0.08020146
-2.500372	admite
-4.277979	adrian	-0.08020146
-2.500372	advierte
-4.277979	adís	-0.0801116
-4.277979	ae3	-0.07986405
-4.277979	aeroportuaria	-0.04283744
-4.277979	afecta	-0.07746378
-4.277979	afectuosos	-0.04283744
-4.277979	afortunadamente	-0.04283744
-4.277979	agilidad	-0.07738077
-4.277979	agosto	-0.04283744
-4.277979	agradables	-0.04283744
-4.277979	agradecer	-0.07821011
-4.277979	agradecidos	-0.04283744
-4.277979	agricultura	-0.04283744
-4.277979	agromán	-0.0602798
-3.808065	agua	-0.04281247
-3.808065	aguas	-0.08017855
-4.277979	agujero	-0.04283744
-2.991747	ahora	-0.04746855
-3.194235	ahí	-0.01925365
-2.500372	aitor
-2.185339	al	-0.08615208
-4.277979	alarde	-0.07738077
-4.277979	albergando	-0.07679929
-3.081295	alcaldesa	-0.09195267
-4.277979	alcance	-0.0602798
-4.277979	alcanzado	-0.07605053
-4.277979	alcanzo	-0.07321015
-4.277979	alcántara	-0.07253912
-4.277979	alemania	-0.04283744
-3.081295	algo	-0.09387987
-3.585705	alguien	-0.07079513
-3.585705	alguna	-0.04214171
-4.277979	algunas	-0.1722015
-3.585705	algunos	-0.07149159
-3.585705	algún	-0.07964572
-4.277979	alimentación	-0.07953377
-4.277979	alimentarias	-0.07463266
-3.808065	alimentos	-0.06025581
-3.585705	allá	-0.2807607
-4.277979	allí	-0.04283744
-4.277979	almendra	-0.07895517
-3.808065	alto	-0.06025581
-4.277979	altura	-0.0602798
-4.277979	alérgenos	-0.04283744
-4.277979	ama	-0.07994658
-4.277979	amable	-0.08020146
-4.277979	amables	-0.04283744
-4.277979	amado	-0.07463266
-4.277979	amanecer	-0.07895517
-4.277979	amantes	-0.1523245
-4.277979	amar	-0.04283744
-4.277979	amaño	-0.04283744
-4.277979	ambiente	-0.06377424
-4.277979	ambos	-0.08015679
-4.277979	amejoramiento	-0.07463266
-4.277979	amiga	-0.08013388
-3.585705	amigo	-0.05465392
-3.808065	amigos	-0.08013388
-3.808065	amistad	-0.03106739
-4.277979	amo	-0.1174146
-2.749879	amor	-0.08179435
-4.277979	amy	-0.04283744
-4.277979	anecdóticas	-0.07796147
-4.277979	anemia	-0.07463266
-4.277979	aniversario	-0.07936853
-4.277979	anotó	-0.07969894
-4.277979	antanas	-0.04283744
-3.585705	ante	-0.07155301
-4.277979	anterioridad	-0.06950658
-3.347278	antes	-0.018287
-4.277979	antiguos	-0.06772777
-3.808065	antonio	-0.08017855
-3.808065	anuncio	-0.04718698
-3.808065	aparece	-0.0675268
-4.277979	aparecen	-0.06950658
-3.808065	aparecieron	-0.06922185
-4.277979	apenas	-0.08015679
-4.277979	apoyando	-0.0723712
-4.277979	apoyar	-0.07253912
-4.277979	aprendemos	-0.07321015
-4.277979	aprobó	-0.06950658
-4.277979	aprovecha	-0.0723712
-4.277979	aprovechar	-0.07253912
-4.277979	apuntar	-0.04283744
-4.277979	apunte	-0.07829296
-4.277979	aquella	-0.08020146
-3.808065	aquellas	-0.0797512
-2.79891	aquí	-0.00204204
-4.277979	arado	-0.06950658
-4.277979	aragón	-0.04283744
-4.277979	arboleda	-0.04283744
-4.277979	ares	-0.04283744
-4.277979	arrepentirás	-0.08015679
-4.277979	arroba	-0.5436842
-4.277979	arés	-0.04283744
-2.500372	asegura
-4.277979	aseguró	-0.07936853
-4.277979	asesinato	-0.0602798
-4.277979	asesor	-0.07738077
-4.277979	asesoramiento	-0.06772777
-4.277979	asesores	-0.07746378
-4.277979	asistido	-0.08020146
-4.277979	aspiramos	-0.04283744
-4.277979	astrofísica	-0.04283744
-2.917544	así	-0.2022808
-4.277979	atiende	-0.07895517
-3.808065	atractivo	-0.07460199
-4.277979	au	-0.08015679
-4.277979	auditorio	-0.06772777
-4.277979	aumentaran	-0.04283744
-4.277979	automático	-0.08020146
-4.277979	autor	-0.07821011
-4.277979	autovía	-0.04283744
-3.808065	avance	-0.06454445
-4.277979	ave	-0.07870696
-3.808065	avellana	-0.07230239
-4.277979	aviones	-0.07986405
-3.808065	ayer	-0.06837516
-3.808065	ayuntamiento	-0.1523245
-4.277979	añade	-0.08015679
-3.347278	año	-0.1043823
-3.347278	años	-0.06773454
-4.277979	aún	-0.07580065
-4.277979	bajar	-0.08020146
-4.277979	bancos	-0.04283744
-2.500372	barcelona
-4.277979	barrio	-0.0602798
-4.277979	base	-0.07738077
-4.277979	bastante	-0.08015679
-4.277979	bbc	-0.04283744
-3.808065	bbva	-0.04264089
-4.277979	beaton	-0.04283744
-4.277979	beautiful	-0.0602798
-3.808065	bella	-0.07967601
-4.277979	belleza	-0.04283744
-4.277979	beneficia	-0.08020146
-4.277979	berlín	-0.07994658
-4.277979	beso	-0.07845861
-4.277979	bestia	-0.04283744
-2.629216	bien	-0.05538472
-4.277979	bienestar	-0.04283744
-4.277979	bienvenidos	-0.07821011
-4.277979	bigas	-0.08020146
-4.277979	biomasa	-0.04283744
-4.277979	bipartita	-0.07895517
-4.277979	biólogos	-0.07463266
-2.991747	black	-0.7044558
-4.277979	blanqueo	-0.0602798
-4.277979	bonificación	-0.0602798
-4.277979	bonitas	-0.0723712
-2.500372	bonito
-4.277979	boris	-0.08020146
-4.277979	breve	-0.08020146
-4.277979	brexit	-0.0801116
-3.808065	buen	-0.08015566
-3.808065	buena	-0.07234787
-3.808065	buenas	-0.04253468
-2.534891	bueno	-0.1459404
-3.585705	buenos	-0.7042387
-4.277979	buje	-0.0723712
-4.277979	busca	-0.07605053
-4.277979	buscando	-0.08015679
-4.277979	buscarlo	-0.07895517
-4.277979	busco	-0.06950658
-4.277979	busquen	-0.07605053
-4.277979	cabida	-0.08015679
-4.277979	cabo	-0.07796147
-2.749879	cada	-0.1219468
-3.347278	cadena	-0.7801251
-4.277979	cadenas	-0.04283744
-4.277979	caer	-0.07253912
-4.277979	caiwza	-0.04283744
-4.277979	cale	-0.04283744
-4.277979	calen	-0.04283744
-4.277979	calendario	-0.07762974
-3.347278	calidad	-0.1105501
-4.277979	calma	-0.04283744
-4.277979	cambia	-0.04283744
-4.277979	camino	-0.04283744
-2.500372	camioneros
-2.500372	camiones
-4.277979	campo	-0.0774333
-4.277979	campos	-0.067017
-3.808065	canarias	-0.05782244
-3.808065	candidato	-0.05293315
-4.277979	cantantes	-0.07463266
-4.277979	cantidades	-0.08020146
-4.277979	capaz	-0.0602798
-4.277979	capeando	-0.07738077
-3.585705	capital	-0.1167972
-4.277979	capitales	-0.04283744
-4.277979	capricho	-0.07746378
-3.808065	cara	-0.0703201
-4.277979	carecer	-0.0602798
-4.277979	caretas	-0.0602798
-3.808065	carles	-0.04281247
-4.277979	carlos	-0.08020146
-4.277979	carmena	-0.04283744
-4.277979	carne	-0.3989961
-4.277979	carácter	-0.04283744
-3.808065	casa	-0.07926293
-4.277979	casan	-0.06950658
-4.277979	cascos	-0.0801116
-4.277979	caso	-0.07376572
-3.808065	casos	-0.03518706
-4.277979	casualidad	-0.0723712
-4.277979	catedrática	-0.0602798
-4.277979	categoría	-0.07945116
-4.277979	catorce	-0.08015679
-4.277979	catálogo	-0.1523245
-4.277979	catón	-0.08015679
-4.277979	celebrando	-0.07253912
-4.277979	celebrar	-0.04163426
-4.277979	centrado	-0.04283744
-4.277979	central	-0.07738077
-4.277979	centro	-0.0602798
-4.277979	centros	-0.1523245
-3.585705	cerca	-0.02097673
-4.277979	cercanía	-0.06772777
-4.277979	cero	-0.0602798
-2.500372	cerrado
-4.277979	cervélo	-0.07413113
-4.277979	cesarlo	-0.07870696
-4.277979	chevy	-0.08020146
-4.277979	chicos	-0.04283744
-4.277979	chiste	-0.08020146
-4.277979	ciclo	-0.0602798
-4.277979	ciedes	-0.0801116
-4.277979	ciencia	-0.06950658
-3.808065	ciento	-0.2531231
-4.277979	científica	-0.07463266
-2.500372	científico
-4.277979	cierta	-0.07607268
-4.277979	cierto	-0.08020146
-3.347278	cinco	-0.1516925
-3.808065	cincuenta	-0.07643612
-4.277979	cine	-0.0723712
-4.277979	cir	-0.07413113
-2.500372	circula
-4.277979	circular	-0.08020146
-4.277979	cita	-0.04283744
-3.585705	ciudad	-0.04266903
-4.277979	ciudadanos	-0.04283744
-4.277979	civil	-0.07463266
-3.194235	claro	-0.1474608
-4.277979	clase	-0.0801116
-2.500372	clave
-4.277979	clavijo	-0.07463266
-4.277979	cliente	-0.06772777
-4.277979	clima	-0.06772777
-4.277979	cobijó	-0.04283744
-3.808065	coche	-0.04718698
-3.808065	cocina	-0.06025581
-4.277979	cocinada	-0.08020146
-4.277979	colaborador	-0.04283744
-4.277979	colegio	-0.08020146
-4.277979	com	-0.2878163
-4.277979	coma	-0.1714132
-4.277979	comentaba	-0.0800291
-4.277979	comentar	-0.06772777
-3.808065	comenzamos	-0.07826255
-4.277979	comenzar	-0.07895517
-4.277979	comenzó	-0.07321015
-4.277979	comienza	-0.07253912
-4.277979	comienzo	-0.04283744
-4.277979	comienzos	-0.0801116
-2.198163	como	-0.0474559
-4.277979	comparte	-0.08020146
-4.277979	compartirlo	-0.04283744
-4.277979	compañeros	-0.0602798
-4.277979	compañía	-0.0723712
-4.277979	competentes	-0.0723712
-4.277979	completo	-0.07961636
-4.277979	comprar	-0.07605053
-4.277979	compras	-0.04283744
-4.277979	compuesto	-0.0602798
-3.808065	comunidad	-0.04281247
-3.808065	común	-0.03518706
-2.185339	con	-0.1483741
-4.277979	concejal	-0.1523245
-4.277979	concejales	-0.0602798
-4.277979	concepción	-0.07969894
-4.277979	concreto	-0.04283744
-4.277979	conde	-0.0602798
-4.277979	condiciones	-0.06950658
-4.277979	conecta	-0.07738077
-4.277979	conexión	-0.008749634
-4.277979	confederación	-0.0800658
-3.585705	confianza	-0.01788917
-3.808065	configuración	-0.07979642
-4.277979	configuran	-0.07821011
-4.277979	conformar	-0.07912056
-4.277979	conforme	-0.08015679
-3.585705	confundir	-0.06157208
-3.081295	congreso	-0.2580341
-4.277979	congresos	-0.04283744
-4.277979	conjunto	-0.1113775
-4.277979	conmigo	-0.07936853
-4.277979	conoce	-0.07870696
-3.808065	conocer	-0.07710116
-4.277979	conocerlo	-0.04283744
-4.277979	conocido	-0.07746378
-4.277979	conozca	-0.04283744
-4.277979	conozcan	-0.07580065
-2.500372	conscientes
-4.277979	conseguido	-0.07605053
-4.277979	conseguir	-0.06772777
-4.277979	conseguí	-0.04283744
-4.277979	consejería	-0.0602798
-3.808065	consejo	-0.06411672
-4.277979	consenso	-0.0602798
-4.277979	considera	-0.07821011
-4.277979	consistorio	-0.07912056
-4.277979	construye	-0.06454445
-4.277979	consuelo	-0.07738077
-3.808065	consulta	-0.08017855
-4.277979	consumo	-0.07413113
-4.277979	contada	-0.07663301
-2.500372	contando
-4.277979	contemporánea	-0.04283744
-4.277979	contemporáneos	-0.07845861
-4.277979	contenido	-0.06950658
-4.277979	contestador	-0.08020146
-4.277979	contigo	-0.04283744
-4.277979	continuar	-0.08020146
-3.808065	contra	-0.03427126
-4.277979	contrario	-0.0602798
-4.277979	contribuye	-0.07738077
-4.277979	controlar	-0.0777127
-4.277979	conveniencia	-0.0777127
-4.277979	conversar	-0.07986405
-4.277979	convertido	-0.07746378
-4.277979	convertirla	-0.08015679
-4.277979	convierta	-0.06950658
-4.277979	convirtiendo	-0.06950658
-4.277979	convirtiéndolos	-0.06950658
-4.277979	copan	-0.07253912
-4.277979	correo	-0.08020146
-3.585705	corte	-0.7868946
-3.585705	cosa	-0.03961353
-3.585705	cosas	-0.08612165
-4.277979	costa	-0.08020146
-4.277979	costando	-0.08015679
-4.277979	crea	-0.07605053
-4.277979	creame	-0.04283744
-4.277979	creando	-0.0801116
-4.277979	creernos	-0.0602798
-3.347278	creo	-1.208076
-3.808065	crezca	-0.04281247
-4.277979	cristina	-0.07605053
-4.277979	criticas	-0.04283744
-4.277979	cromático	-0.08020146
-4.277979	cruce	-0.07787856
-2.500372	críticas
-4.277979	cuadrado	-0.02487747
-4.277979	cual	-0.07253912
-4.277979	cuales	-0.07969894
-4.277979	cualidad	-0.07253912
-4.277979	cualquier	-0.08020146
-2.705827	cuando	-0.09107204
-4.277979	cuanto	-0.07829296
-3.808065	cuarenta	-0.130142
-3.808065	cuatro	-0.1720738
-4.277979	cuba	-0.06950658
-3.347278	cuenta	-0.02100167
-4.277979	cuentas	-0.0602798
-4.277979	cuento	-0.07986405
-4.277979	cuestiones	-0.06343148
-4.277979	cueto	-0.07253912
-4.277979	cultivo	-0.0602798
-3.808065	cultura	-0.08000618
-4.277979	cultural	-0.07762974
-4.277979	cumplir	-0.07936853
-4.277979	cura	-0.07738077
-4.277979	curiosamente	-0.07580065
-4.277979	cursos	-0.06772777
-4.277979	cuyo	-0.07994658
-3.808065	cuáles	-0.1710826
-4.277979	cuántas	-0.07994658
-3.808065	cuéntanos	-0.1695915
-4.277979	cátedra	-0.08020146
-4.277979	cínicos	-0.04283744
-4.277979	cómo	-0.07994658
-3.585705	da	-0.07186607
-3.808065	dado	-0.08000618
-2.500372	dalt
-4.277979	damas	-0.08020146
-4.277979	dando	-0.0723712
-4.277979	dar	-0.0777127
-3.808065	darte	-0.07585338
-4.277979	darías	-0.0800291
-3.585705	dato	-0.042461
-4.277979	david	-0.08020146
-1.347894	de	-0.129933
-3.808065	debate	-0.0682904
-3.194235	debe	-0.2495564
-3.808065	deben	-0.07934558
-4.277979	deberá	-0.07953377
-4.277979	debería	-0.07936853
-4.277979	decidido	-0.08020146
-4.277979	decidir	-0.07787856
-4.277979	decimoctava	-0.0602798
-4.277979	decimosexto	-0.08015679
-2.991747	decir	-0.1506778
-4.277979	decirnos	-0.06772777
-4.277979	declarando	-0.07605053
-4.277979	declarar	-0.06667679
-3.194235	decía	-0.1059592
-4.277979	decían	-0.07787856
-2.500372	decías
-3.808065	dedicado	-0.0703201
-4.277979	defender	-0.07253912
-2.500372	defendido
-4.277979	defensa	-0.07321015
-4.277979	defiende	-0.0723712
-4.277979	definir	-0.04283744
-4.277979	definitiva	-0.04283744
-4.277979	dejadez	-0.0602798
-3.808065	dejar	-0.06744187
-2.500372	dejarse
-4.277979	dejarán	-0.0797815
-4.277979	dejen	-0.07787856
-4.277979	dejes	-0.08020146
-3.808065	dejó	-0.07987896
-2.225008	del	-0.1410356
-4.277979	delito	-0.08015679
-4.277979	demasiado	-0.07994658
-4.277979	demencia	-0.04283744
-4.277979	democrática	-0.04283744
-4.277979	democráticas	-0.04283744
-4.277979	demostrar	-0.06950658
-4.277979	demuestran	-0.07936853
-2.500372	demás
-4.277979	den	-0.07829296
-3.808065	densidad	-0.05747596
-4.277979	denuncia	-0.08020146
-4.277979	denunciada	-0.04283744
-4.277979	denuncian	-0.06950658
-4.277979	departamento	-0.0602798
-3.585705	depende	-0.05078796
-4.277979	dependiendo	-0.0602798
-4.277979	deporte	-0.07738077
-4.277979	deportes	-0.0723712
-4.277979	depuradora	-0.06772777
-2.500372	derechos
-4.277979	desapareciendo	-0.08020146
-4.277979	desarmado	-0.07953377
-3.808065	desarrollo	-0.07200431
-4.277979	desarrollos	-0.08015679
-4.277979	desatada	-0.07994658
-4.277979	descendientes	-0.08020146
-4.277979	descubra	-0.07912056
-3.585705	descubre	-0.06783521
-4.277979	descubres	-0.06772777
-4.277979	descuento	-0.1051921
-4.277979	descuentos	-0.06772777
-2.665834	desde	-0.06547838
-4.277979	desea	-0.04283744
-2.500372	deseamos
-4.277979	desearía	-0.0801116
-3.585705	deseo	-0.07727559
-3.808065	deseos	-0.1019599
-4.277979	desinterés	-0.0602798
-4.277979	desperdiciar	-0.07945116
-4.277979	despoblada	-0.06772777
-3.585705	después	-0.03925116
-2.500372	destrucción
-4.277979	desventaja	-0.0797815
-4.277979	detección	-0.0602798
-4.277979	detectar	-0.08020146
-4.277979	detenido	-0.07321015
-4.277979	detrás	-0.07762974
-4.277979	dgt	-0.06950658
-4.277979	di	-0.0723712
-3.808065	diamante	-0.04276379
-4.277979	diario	-0.0602798
-3.347278	dice	-0.05498282
-3.808065	dices	-0.04281247
-3.808065	dicho	-0.03359537
-4.277979	diciembre	-0.04283744
-4.277979	diciendo	-0.04283744
-4.277979	dicotomía	-0.08020146
-4.277979	dieciocho	-0.08013388
-3.585705	dieciséis	-0.1019112
-4.277979	dieron	-0.0723712
-3.347278	diez	-0.08002087
-4.277979	diferencia	-0.07463266
-4.277979	diferencias	-0.06950658
-4.277979	dificultar	-0.0777127
-3.808065	difícil	-0.07888739
-4.277979	digamos	-0.06772777
-4.277979	digital	-0.04283744
-3.347278	digo	-0.1444449
-4.277979	dijeron	-0.06772777
-4.277979	dijo	-0.06772777
-4.277979	diligencia	-0.08020146
-4.277979	diputados	-0.07663301
-3.808065	dirección	-0.07884207
-2.500372	directamente
-4.277979	dirige	-0.0723712
-4.277979	diría	-0.07936853
-4.277979	discute	-0.04283744
-3.808065	discutido	-0.07951082
-4.277979	disfrutamos	-0.07895517
-3.585705	disfrutar	-0.1367541
-2.500372	dispuesto
-4.277979	distancia	-0.07762974
-3.808065	distintas	-0.08013388
-2.500372	distintos
-4.277979	divorcian	-0.08015679
-4.277979	doce	-0.0800291
-4.277979	dolor	-0.04283744
-4.277979	domingo	-0.1348822
-4.277979	don	-0.08020146
-3.347278	donde	-0.01791449
-4.277979	dorado	-0.04283744
-3.808065	dormir	-0.07276008
-2.705827	dos	-0.05827302
-3.808065	douglas	-0.04118335
-3.347278	duda	-0.1549953
-4.277979	dudar	-0.07413113
-4.277979	dude	-0.08020146
-4.277979	dudosa	-0.0801116
-4.277979	dueño	-0.0602798
-3.808065	dura	-0.07826255
-2.991747	durante	-0.08223926
-4.277979	duro	-0.07543665
-4.277979	dándole	-0.0777127
-4.277979	dátolo	-0.0801116
-4.277979	décimos	-0.06772777
-2.991747	día	-0.07719091
-3.347278	días	-0.1244068
-3.808065	dónde	-0.07967601
-4.277979	e	-0.07994658
-4.277979	edad	-0.0602798
-4.277979	edificantes	-0.07787856
-4.277979	egipto	-0.08020146
-2.917544	eh	-0.06372722
-3.585705	ejemplo	-0.1192279
-4.277979	ejercen	-0.04283744
-1.755964	el	-0.1404327
-4.277979	elabora	-0.07829296
-4.277979	elección	-0.0602798
-2.500372	electoral
-4.277979	electrónica	-0.07253912
-4.277979	electrónico	-0.08015679
-4.277979	elegida	-0.07663301
-4.277979	elegir	-0.07928589
-4.277979	elemental	-0.04283744
-4.277979	elementales	-0.06772777
-4.277979	elevadas	-0.07746378
-4.277979	elige	-0.04283744
-3.808065	ella	-0.04281247
-4.277979	ellas	-0.03619221
-4.277979	ello	-0.04283744
-4.277979	ellos	-0.08020146
-4.277979	embarazada	-0.07969894
-3.808065	embarazo	-0.04208471
-3.808065	emma	-0.06545267
-4.277979	emociona	-0.08020146
-4.277979	emociones	-0.06965116
-4.277979	empezado	-0.07953377
-3.585705	empezar	-0.07729679
-4.277979	empleo	-0.04283744
-4.277979	emprendedora	-0.04283744
-4.277979	emprendimiento	-0.04283744
-3.808065	empresa	-0.06943731
-4.277979	empresario	-0.04283744
-4.277979	empresarios	-0.04283744
-4.277979	empresas	-0.07463266
-1.613027	en	-0.1911466
-4.277979	enamoras	-0.07463266
-4.277979	encanto	-0.07762974
-4.277979	encender	-0.0723712
-4.277979	encima	-0.0602798
-4.277979	encontrar	-0.07321015
-3.808065	enemigo	-0.05223002
-3.808065	enero	-0.06956007
-4.277979	enfadado	-0.0800291
-4.277979	enfermedad	-0.06772777
-4.277979	enfermeras	-0.07912056
-4.277979	enfrentar	-0.07994658
-3.808065	enorme	-0.04281247
-4.277979	enseñaron	-0.04283744
-2.500372	ente
-4.277979	entender	-0.08020146
-4.277979	entiende	-0.07413113
-4.277979	entiendo	-0.1597725
-4.277979	entonces	-0.07158387
-3.808065	entrar	-0.03518706
-4.277979	entrara	-0.04283744
-2.854189	entre	-0.02668919
-4.277979	entrega	-0.0723712
-4.277979	enviado	-0.08015679
-4.277979	equiparar	-0.07253912
-4.277979	equivocan	-0.04283744
-2.500372	equivoco
-3.585705	era	-0.07649623
-4.277979	eran	-0.07787856
-3.808065	eres	-0.08017855
-1.85598	es	-0.2131835
-3.081295	esa	-0.09650267
-3.808065	esas	-0.08000618
-4.277979	escapar	-0.0797815
-4.277979	escriben	-0.07994658
-4.277979	escribir	-0.04283744
-3.808065	escrito	-0.06326
-4.277979	escritura	-0.07580065
-3.808065	escuchado	-0.06820562
-4.277979	escuchan	-0.07928589
-3.585705	escuchando	-0.0522857
-3.585705	escuchar	-0.1131175
-4.277979	escuche	-0.0723712
-4.277979	escuchen	-0.08020146
-2.79891	ese	-0.07843269
-4.277979	esfera	-0.0602798
-2.500372	esfuerce
-4.277979	esfuerzo	-0.07253912
-2.534891	eso	-0.09572028
-4.277979	esos	-0.04283744
-3.585705	espacio	-0.02102792
-4.277979	espacios	-0.0602798
-2.854189	españa	-0.004173033
-4.277979	españas	-0.07762974
-4.277979	español	-0.0602798
-4.277979	española	-0.0602798
-4.277979	españoles	-0.07878971
-4.277979	especiales	-0.07663301
-4.277979	especialmente	-0.08020146
-4.277979	espectacular	-0.04283744
-4.277979	espectaculares	-0.06964459
-4.277979	espectáculo	-0.07804437
-4.277979	específico	-0.08020146
-2.500372	esperanza
-4.277979	esperar	-0.07321015
-2.534891	esta	-0.1819034
-4.277979	estaba	-0.07413113
-4.277979	establecen	-0.0777127
-4.277979	establecer	-0.07605053
-4.277979	estacionamiento	-0.0602798
-4.277979	estaciones	-0.04283744
-4.277979	estado	-0.06950658
-4.277979	estados	-0.08020146
-2.854189	estamos	-0.01722798
-4.277979	estancias	-0.06772777
-4.277979	estando	-0.06950658
-3.347278	estar	-0.09608579
-4.277979	estarán	-0.08015679
-3.194235	estas	-0.1045256
-2.534891	este	-0.08420584
-2.854189	esto	-0.1702262
-4.277979	estos	-0.04283744
-3.808065	estoy	-0.07951082
-4.277979	estudio	-0.0602798
-4.277979	estupefactos	-0.0801116
-2.749879	está	-0.1198004
-3.808065	estábamos	-0.06659169
-3.081295	están	-0.06766446
-3.808065	estás	-0.0694831
-3.585705	estén	-0.0793979
-3.808065	europa	-0.0343293
-3.808065	euros	-0.04208471
-4.277979	evaluar	-0.0723712
-3.808065	evidente	-0.04199465
-4.277979	evolución	-0.1523245
-4.277979	exceso	-0.07413113
-3.585705	existe	-0.04127253
-4.277979	existen	-0.04283744
-4.277979	existencia	-0.07870696
-4.277979	experiencia	-0.07920323
-4.277979	experiencias	-0.07679929
-3.347278	expertos	-0.1096379
-4.277979	explicar	-0.07663301
-4.277979	explicarlos	-0.08015679
-4.277979	extra	-0.08020146
-4.277979	extranjero	-0.08020146
-4.277979	extraordinarias	-0.07679929
-4.277979	extraño	-0.0801116
-4.277979	fabian	-0.08015679
-4.277979	facultad	-0.0602798
-4.277979	fallido	-0.04283744
-4.277979	falta	-0.07936853
-4.277979	faltado	-0.07738077
-4.277979	faltaría	-0.04283744
-3.808065	familia	-0.01223571
-4.277979	famosísima	-0.08020146
-4.277979	fantástico	-0.07746378
-4.277979	faraón	-0.08020146
-4.277979	favor	-0.02919957
-3.808065	favoritos	-0.04190458
-4.277979	fe	-0.04283744
-4.277979	fecales	-0.07961636
-4.277979	fecha	-0.06950658
-4.277979	fechas	-0.08020146
-4.277979	felices	-0.07671615
-4.277979	feliz	-0.07192025
-3.808065	feria	-0.1523245
-4.277979	fernando	-0.03518706
-3.347278	ferrocarril	-0.02060652
-3.808065	festejar	-0.03910312
-4.277979	festivo	-0.0602798
-4.277979	feto	-0.04283744
-4.277979	fijo	-0.07928589
-4.277979	filial	-0.04283744
-4.277979	filosofía	-0.0602798
-2.991747	fin	-0.4350064
-4.277979	final	-0.07802135
-4.277979	finales	-0.07762974
-4.277979	fine	-0.08020146
-4.277979	finlandia	-0.07543665
-2.500372	fluidez
-2.917544	forma	-0.05265903
-4.277979	formaba	-0.07986405
-4.277979	formaban	-0.07986405
-4.277979	formación	-0.06772777
-4.277979	francesa	-0.06950658
-4.277979	francino	-0.04283744
-4.277979	frase	-0.04283744
-4.277979	frente	-0.0602798
-4.277979	friday	-0.1695107
-4.277979	frustración	-0.07413113
-4.277979	frío	-0.08020146
-3.585705	fue	-0.07675314
-3.808065	fuera	-0.09743384
-4.277979	fueron	-0.07738077
-4.277979	fuerte	-0.07804437
-4.277979	fuerzas	-0.04283744
-4.277979	fui	-0.07321015
-4.277979	funciona	-0.07738077
-4.277979	fundación	-0.04283744
-4.277979	fundamental	-0.07663301
-4.277979	fundamentos	-0.06772777
-3.585705	futuro	-0.05501947
-4.277979	fuéramos	-0.0800291
-4.277979	fácil	-0.07986405
-4.277979	fáciles	-0.07671615
-4.277979	fácilmente	-0.07413113
-3.808065	fíjate	-0.1721563
-4.277979	gamón	-0.04283744
-4.277979	ganar	-0.04283744
-4.277979	garrido	-0.3577018
-3.808065	gastronomía	-0.03157064
-4.277979	genera	-0.07961636
-2.500372	general
-4.277979	generosidad	-0.04283744
-4.277979	generosos	-0.06772777
-2.79891	gente	-0.06969636
-4.277979	gestión	-0.0602798
-4.277979	gestoras	-0.08020146
-4.277979	getafe	-0.08020146
-4.277979	gibraltar	-0.04281247
-4.277979	gila	-0.07796147
-4.277979	girasol	-0.07878971
-4.277979	giro	-0.0602798
-4.277979	gitana	-0.08020146
-4.277979	gobierno	-0.08020146
-4.277979	gol	-0.0800291
-4.277979	gonzalo	-0.08020146
-4.277979	google	-0.0723712
-4.277979	gordo	-0.0602798
-3.808065	gotemburgo	-0.07967601
-3.808065	grabación	-0.07802135
-3.347278	gracias	-0.08271962
-3.808065	grados	-0.04253468
-4.277979	grafía	-0.06772777
-3.194235	gran	-0.06538774
-3.808065	grande	-0.03427126
-4.277979	grandes	-0.08015679
-4.277979	grasa	-0.06950658
-4.277979	grito	-0.0602798
-4.277979	grupo	-0.06020904
-4.277979	grupos	-0.08015679
-4.277979	guardar	-0.07920323
-4.277979	guardia	-0.08020146
-4.277979	guiso	-0.04283744
-2.500372	gurría
-4.277979	gusta	-0.04142087
-4.277979	gustaría	-0.08020146
-2.534891	ha	-0.1320969
-3.585705	haber	-0.08002111
-4.277979	habernos	-0.07986405
-3.808065	habitantes	-0.04244472
-4.277979	habitualmente	-0.06950658
-3.808065	habla	-0.05442353
-3.347278	hablamos	-0.05098789
-3.585705	hablando	-0.3989961
-3.081295	hablar	-0.1515148
-4.277979	hablaron	-0.04283744
-4.277979	hablo	-0.04283744
-4.277979	habrá	-0.08020146
-4.277979	habría	-0.06772777
-3.585705	habéis	-0.1391914
-4.277979	había	-0.08020146
-2.705827	hace	-0.1108272
-4.277979	hacemos	-0.04226475
-4.277979	hacen	-0.07936853
-3.347278	hacer	-0.08660389
-3.808065	hacerlo	-0.06497175
-3.585705	hacia	-0.1314953
-3.808065	haciendo	-0.05223002
-4.277979	haga	-0.08015679
-4.277979	hagan	-0.07912056
-4.277979	hago	-0.08015679
-4.277979	hagáis	-0.08020146
-2.854189	han	-0.09146031
-3.808065	hari	-0.1348822
-4.277979	hará	-0.0801116
-4.277979	haríamos	-0.07986405
-4.277979	has	-0.07969894
-3.194235	hasta	-0.317671
-2.534891	hay	-0.2631779
-4.277979	haya	-0.06725616
-3.585705	he	-0.08015566
-3.585705	hecho	-0.05805204
-2.79891	hemos	-0.1141492
-4.277979	herencia	-0.07936853
-4.277979	hernández	-0.1666774
-4.277979	hicieron	-0.07253912
-4.277979	hicimos	-0.07804437
-4.277979	hidrográfica	-0.07762974
-4.277979	hierro	-0.04283744
-3.808065	hijo	-0.07065747
-4.277979	hijos	-0.08020146
-2.917544	historia	-0.2170982
-4.277979	historiador	-0.0602798
-4.277979	historias	-0.06772777
-4.277979	hito	-0.08020146
-3.808065	hizo	-0.04276379
-4.277979	hogar	-0.04283744
-3.585705	hola	-0.1388986
-4.277979	holanda	-0.04283744
-3.585705	hombre	-0.06451308
-3.347278	hora	-0.2609666
-4.277979	horarios	-0.07253912
-3.194235	horas	-0.03608608
-2.705827	hoy	-0.2858725
-4.277979	hubiese	-0.08020146
-4.277979	huir	-0.07679929
-4.277979	humanidad	-0.06772777
-4.277979	humano	-0.08020146
-4.277979	humor	-0.04283744
-3.808065	hundía	-0.04226475
-4.277979	i	-0.07994658
-3.585705	iba	-0.06911378
-4.277979	idea	-0.04283744
-4.277979	ido	-0.0801116
-3.808065	iglesias	-0.07577751
-4.277979	igor	-0.04283744
-3.347278	igual	-0.06489134
-2.500372	igualito
-3.808065	ikea	-0.04199465
-4.277979	iker	-0.08020146
-4.277979	ilegales	-0.0602798
-4.277979	iluminadas	-0.07463266
-4.277979	ilusiona	-0.06772777
-4.277979	ilusionan	-0.07253912
-4.277979	ilusión	-0.06772777
-4.277979	imagen	-0.08020146
-4.277979	imaginas	-0.06772777
-2.500372	imitación
-4.277979	importancia	-0.06950658
-3.194235	importante	-0.08969475
-3.585705	importantes	-0.01995224
-3.347278	imágenes	-0.0398111
-4.277979	in	-0.07804437
-3.194235	incluso	-0.01735146
-4.277979	incompatibles	-0.0800291
-4.277979	inconcebible	-0.08020146
-4.277979	incondicional	-0.07463266
-3.808065	incontrolable	-0.07166799
-2.500372	incrementado
-2.500372	incremento
-4.277979	increíbles	-0.04283744
-4.277979	incumplidas	-0.07679929
-4.277979	indignación	-0.08015679
-4.277979	indignados	-0.08020146
-4.277979	individuales	-0.06772777
-4.277979	infinito	-0.07945116
-4.277979	informa	-0.07870696
-3.585705	información	-0.05437494
-4.277979	informante	-0.07969894
-4.277979	informativos	-0.04283744
-4.277979	informe	-0.0602798
-4.277979	infraestructuras	-0.04283744
-4.277979	inglés	-0.09684613
-2.500372	ingredientes
-4.277979	inmuno	-0.08020146
-4.277979	innovan	-0.04283744
-4.277979	innumerables	-0.04283744
-4.277979	inseguros	-0.04283744
-4.277979	insistir	-0.07928589
-4.277979	insisto	-0.06950658
-4.277979	insípido	-0.08020146
-4.277979	intactas	-0.08020146
-2.500372	intención
-2.500372	intentando
-4.277979	intentar	-0.06772777
-4.277979	intentaré	-0.08020146
-2.500372	interesante
-4.277979	interesantes	-0.0602798
-4.277979	interior	-0.0602798
-4.277979	internacional	-0.08015679
-4.277979	internas	-0.07671615
-3.808065	internet	-0.03673949
-4.277979	interpuesta	-0.04283744
-3.808065	interés	-0.08013388
-4.277979	intolerancias	-0.08020146
-4.277979	introduciendo	-0.07253912
-4.277979	inusual	-0.08020146
-4.277979	investiga	-0.07663301
-4.277979	investigado	-0.06950658
-4.277979	investigador	-0.07580065
-4.277979	invierte	-0.07961636
-4.277979	invita	-0.07321015
-4.277979	invitarnos	-0.07321015
-4.277979	invito	-0.06772777
-3.585705	ir	-0.1323343
-4.277979	iraquí	-0.08020146
-4.277979	ironía	-0.07057315
-4.277979	is	-0.0797815
-4.277979	isla	-0.04283744
-4.277979	iva	-0.07746378
-4.277979	izaguirre	-0.0723712
-3.808065	iñaki	-0.07926293
-4.277979	jabón	-0.07953377
-3.808065	jamones	-0.07234037
-4.277979	jamás	-0.08020146
-3.585705	jamón	-0.08546799
-3.194235	javier	-0.1062116
-4.277979	jen	-0.0777127
-4.277979	john	-0.08020146
-3.808065	joven	-0.08017855
-4.277979	jubila	-0.04283744
-4.277979	jueves	-0.0801116
-3.808065	julio	-0.1722462
-4.277979	juncos	-0.08015679
-4.277979	junto	-0.07738077
-4.277979	juntos	-0.0602798
-4.277979	jurado	-0.04283744
-4.277979	jurar	-0.08015679
-4.277979	justamente	-0.07253912
-4.277979	jóvenes	-0.08020146
-2.500372	kilometros
-3.808065	kilómetro	-0.2830685
-3.347278	kilómetros	-0.08038561
-1.746661	la	-0.09343675
-4.277979	laboral	-0.04283744
-3.808065	labores	-0.067187
-3.808065	lado	-0.04064164
-4.277979	lamentable	-0.08020146
-4.277979	lanzamos	-0.07829296
-4.277979	larga	-0.0801116
-4.277979	largo	-0.07253912
-2.239079	las	-0.06672658
-2.917544	le	-0.07940369
-4.277979	lectores	-0.0800291
-4.277979	lectura	-0.0602798
-4.277979	leen	-0.04283744
-4.277979	leer	-0.07961636
-3.808065	legal	-0.05981611
-4.277979	legalizando	-0.0723712
-3.585705	lejos	-0.06485498
-2.500372	lenta
-2.854189	les	-0.0787044
-4.277979	letón	-0.08020146
-4.277979	levantado	-0.07321015
-4.277979	leyenda	-0.08015679
-4.277979	leyendas	-0.04283744
-4.277979	león	-0.04283744
-3.808065	libertad	-0.05817065
-4.277979	libertades	-0.08020146
-4.277979	libremente	-0.07787856
-4.277979	libro	-0.07994658
-4.277979	libros	-0.04281247
-4.277979	limitación	-0.04283744
-3.808065	lista	-0.0740626
-4.277979	literaria	-0.0602798
-4.277979	literatura	-0.07413113
-2.500372	litoral
-4.277979	liz	-0.08020146
-4.277979	llamó	-0.07912056
-4.277979	llega	-0.04283744
-3.808065	llegar	-0.1652549
-4.277979	llegará	-0.07605053
-4.277979	llegábamos	-0.0801116
-4.277979	llegó	-0.07321015
-4.277979	lleida	-0.04283744
-4.277979	llenar	-0.08020146
-3.808065	lleno	-0.1523245
-3.808065	lleva	-0.07301171
-4.277979	llevado	-0.07321015
-3.347278	llevamos	-0.07746281
-4.277979	llevarte	-0.07321015
-4.277979	llovido	-0.07961636
-4.277979	lloviendo	-0.07754677
-4.277979	lluvias	-0.0602798
-2.211378	lo	-0.274191
-4.277979	localizado	-0.07738077
-4.277979	loco	-0.04283744
-4.277979	logra	-0.08020146
-4.277979	loles	-0.08020146
-3.585705	londres	-0.06630508
-2.268667	los	-0.05981196
-4.277979	lotería	-0.0602798
-3.808065	lotus	-0.06020904
-4.277979	love	-0.04283744
-4.277979	lucha	-0.07928589
-3.585705	luchando	-0.1335823
-4.277979	luchar	-0.07321015
-3.808065	luego	-0.07851101
-3.808065	lugar	-0.04281247
-4.277979	lugares	-0.04283744
-4.277979	luna	-0.06950658
-3.808065	lunes	-0.1120806
-2.500372	líder
-4.277979	línea	-0.07934558
-4.277979	líneas	-0.04283744
-4.277979	macarena	-0.08020146
-4.277979	madre	-0.08015679
-3.194235	madrid	-0.01681353
-3.808065	madrugada	-0.416346
-4.277979	magra	-0.0801116
-4.277979	maleducados	-0.07804437
-4.277979	maleta	-0.04283744
-3.808065	malo	-0.07376572
-4.277979	manda	-0.08020146
-4.277979	mandado	-0.06522794
-4.277979	manera	-0.0602798
-4.277979	manifestamos	-0.06950658
-4.277979	manifiesto	-0.07679929
-4.277979	manitas	-0.08020146
-4.277979	manolo	-0.08020146
-4.277979	mantener	-0.0723712
-4.277979	mantra	-0.04283744
-2.500372	manuel
-2.500372	manuela
-3.808065	manzanares	-0.03619221
-4.277979	mapa	-0.0602798
-3.585705	mapfre	-0.06716342
-3.808065	maravillosa	-0.1011421
-3.808065	maravilloso	-0.07886443
-4.277979	marca	-0.07253912
-4.277979	marcas	-0.07945116
-2.500372	marcha
-4.277979	marcia	-0.04283744
-4.277979	marcos	-0.07945116
-4.277979	mari	-0.08020146
-4.277979	martes	-0.07961636
-2.500372	martín
-4.277979	masivo	-0.07821011
-4.277979	mata	-0.08015679
-4.277979	matrimoniales	-0.07463266
-3.347278	matrimonio	-0.04140408
-4.277979	matrimonios	-0.07900751
-4.277979	mayor	-0.08015679
-3.585705	mañana	-0.008633137
-2.595446	me	-0.1540822
-4.277979	medieval	-0.04283744
-3.347278	medio	-0.10191
-4.277979	medir	-0.07754677
-4.277979	mediterráneo	-0.0797815
-2.991747	mejor	-0.05301161
-4.277979	mejorado	-0.07953377
-3.194235	menos	-0.2700341
-4.277979	mente	-0.07936853
-4.277979	menudo	-0.07580065
-4.277979	mera	-0.08020146
-4.277979	mercado	-0.07953377
-3.585705	merece	-0.09341871
-4.277979	merecemos	-0.07945116
-4.277979	mereces	-0.04283744
-4.277979	mes	-0.0602798
-4.277979	mesa	-0.07463266
-4.277979	meses	-0.0797815
-4.277979	metan	-0.06950658
-4.277979	meter	-0.07994658
-4.277979	metro	-0.0602798
-3.808065	mi	-0.1235648
-4.277979	mientras	-0.08015679
-4.277979	mijas	-0.06950658
-3.194235	mil	-0.06698485
-4.277979	militancia	-0.0602798
-4.277979	ministro	-0.08020146
-3.808065	minuto	-0.06820562
-3.347278	minutos	-0.01677918
-4.277979	mira	-0.07895517
-4.277979	mirado	-0.07895517
-4.277979	miranda	-0.0602798
-4.277979	mirar	-0.08015679
-4.277979	miró	-0.08020146
-4.277979	misma	-0.07969894
-3.808065	mismo	-0.07950344
-4.277979	mitad	-0.0602798
-4.277979	mito	-0.04283744
-3.808065	miércoles	-0.06050708
-4.277979	moda	-0.07175209
-4.277979	moderar	-0.0777127
-3.585705	momento	-0.04902717
-4.277979	momentos	-0.06950658
-4.277979	moore	-0.04283744
-3.808065	mora	-0.03427126
-4.277979	more	-0.04283744
-4.277979	mos	-0.0801116
-4.277979	moscoso	-0.0741079
-4.277979	mostrar	-0.07945116
-2.500372	motivos
-4.277979	moza	-0.04283744
-3.585705	mucha	-0.0794879
-3.194235	muchas	-0.1141291
-2.854189	mucho	-0.05474277
-3.081295	muchos	-0.08425543
-3.808065	muchísima	-0.08013388
-4.277979	muchísimas	-0.0800291
-4.277979	muebles	-0.04283744
-4.277979	muestra	-0.0602798
-3.808065	mujer	-0.07577007
-2.500372	multados
-4.277979	multi	-0.04283744
-3.585705	mundo	-0.06721608
-2.391737	muy	-0.1805101
-4.277979	málaga	-0.04283744
-4.277979	márquez	-0.07845861
-2.352877	más	-0.007113576
-4.277979	máxima	-0.0801116
-4.277979	máximas	-0.07936853
-4.277979	médicos	-0.0800291
-4.277979	métodos	-0.06772777
-3.808065	mí	-0.1189945
-4.277979	mínimo	-0.1615513
-4.277979	míos	-0.04283744
-3.347278	música	-0.0803026
-4.277979	nacer	-0.07953377
-4.277979	nacha	-0.08020146
-4.277979	nacho	-0.08017855
-4.277979	nacidos	-0.07321015
-4.277979	nacional	-0.08015679
-3.585705	nada	-0.05787842
-3.808065	nadie	-0.0725158
-4.277979	narcotráfico	-0.07463266
-3.808065	navarrete	-0.07851101
-4.277979	navidad	-0.09029048
-3.808065	necesitas	-0.1316558
-2.500372	nefastas
-4.277979	negativas	-0.07463266
-3.808065	negocio	-0.08013388
-3.081295	ni	-0.0517645
-2.500372	ninguna
-4.277979	ninguno	-0.0602798
-2.500372	ningún
-3.808065	niños	-0.07318687
-1.994208	no	-0.1425701
-3.808065	noche	-0.1348822
-3.194235	nombre	-0.006542407
-2.500372	normal
-2.500372	normalidad
-3.808065	normalmente	-0.07048882
-2.500372	norte
-2.665834	nos	-0.1316883
-2.991747	nosotros	-0.06733254
-4.277979	notamos	-0.07679929
-3.808065	novedades	-0.07234037
-4.277979	noventa	-0.07463266
-4.277979	noviembre	-0.03685489
-3.585705	nuestra	-0.07919475
-4.277979	nuestras	-0.07746378
-4.277979	nuestro	-0.08017855
-3.347278	nuestros	-0.07989277
-4.277979	nueva	-0.0801116
-4.277979	nuevas	-0.07804437
-3.194235	nueve	-0.09436055
-4.277979	nuevo	-0.08017855
-4.277979	nunca	-0.07951082
-4.277979	nutrición	-0.04283744
-4.277979	nutrientes	-0.04283744
-4.277979	núcleo	-0.07912056
-2.79891	o	-0.06816466
-4.277979	objetivo	-0.0602798
-4.277979	observatorio	-0.0602798
-4.277979	observatorios	-0.04283744
-2.500372	obstante
-2.500372	ocde
-4.277979	ochenta	-0.07463266
-3.347278	ocho	-0.07093275
-3.585705	ochocientos	-0.07989339
-4.277979	ocio	-0.07986405
-4.277979	ocurra	-0.07580065
-4.277979	ocurre	-0.07746378
-4.277979	ocurrió	-0.0797815
-3.808065	odio	-0.03445458
-4.277979	oeste	-0.0801116
-4.277979	oferta	-0.06772777
-4.277979	ofertas	-0.08020146
-4.277979	ofrecer	-0.07679929
-4.277979	ofrecido	-0.07663301
-4.277979	ojo	-0.0602798
-4.277979	olvida	-0.04283744
-4.277979	olvidó	-0.08020146
-4.277979	once	-0.08015679
-3.808065	one	-0.1391089
-3.585705	oportunidades	-0.1138776
-4.277979	ordenación	-0.07762974
-4.277979	ordenador	-0.07463266
-4.277979	orgullo	-0.06772777
-2.500372	orgullosos
-4.277979	origen	-0.08020146
-4.277979	original	-0.08020146
-4.277979	ortiz	-0.04283744
-3.081295	otra	-0.1932656
-4.277979	otras	-0.08020146
-3.347278	otro	-0.1230242
-3.194235	otros	-0.07359731
-3.808065	outlet	-0.07710116
-4.277979	oxidado	-0.08015679
-3.347278	oyentes	-0.01984901
-4.277979	oí	-0.04283744
-4.277979	oídos	-0.04283744
-4.277979	pabellón	-0.07920323
-4.277979	pablo	-0.08015679
-3.808065	pactos	-0.05990255
-4.277979	pairs	-0.04283744
-4.277979	paisaje	-0.07986405
-4.277979	palabra	-0.07928589
-4.277979	palabras	-0.07895517
-4.277979	palos	-0.0602798
-2.094453	para	-0.01836753
-4.277979	parados	-0.04283744
-3.808065	parece	-0.08017855
-3.808065	pareja	-0.07401677
-4.277979	parlamento	-0.08020146
-3.081295	parte	-0.2635065
-3.808065	partes	-0.04276379
-4.277979	partida	-0.07671615
-4.277979	partidario	-0.0602798
-3.585705	partido	-0.08011209
-4.277979	partir	-0.0602798
-2.500372	partirse
-4.277979	partner	-0.06950658
-3.194235	pasa	-0.003295638
-3.585705	pasado	-0.04268959
-4.277979	pasajero	-0.08020146
-4.277979	pasajeros	-0.07804437
-4.277979	pasamanos	-0.08020146
-4.277979	pasan	-0.06950658
-3.347278	pasar	-0.0466704
-4.277979	pase	-0.04283744
-3.808065	pasiones	-0.06744187
-3.585705	pasión	-0.06721608
-3.808065	paso	-0.07435128
-4.277979	paséis	-0.07605053
-4.277979	pasó	-0.06950658
-4.277979	paterno	-0.08020146
-4.277979	patria	-0.06772777
-4.277979	patrimonio	-0.0602798
-4.277979	patronal	-0.04283744
-3.347278	país	-0.04108439
-4.277979	países	-0.0602798
-2.500372	pedido
-3.808065	pedimos	-0.06411672
-4.277979	pedir	-0.04283744
-4.277979	peleando	-0.04283744
-4.277979	peliculero	-0.04283744
-4.277979	peligro	-0.06950658
-4.277979	películas	-0.04283744
-4.277979	pena	-0.04281247
-3.808065	pensamos	-0.06896802
-4.277979	pensando	-0.06950658
-3.808065	pensar	-0.067017
-4.277979	pensiones	-0.0801116
-4.277979	peor	-0.08015679
-4.277979	pepa	-0.04283744
-4.277979	pequeño	-0.08015679
-4.277979	perales	-0.07762974
-4.277979	perfectamente	-0.04283744
-2.500372	permita
-4.277979	permite	-0.08020146
-2.284253	pero	-0.08506745
-4.277979	perro	-0.07253912
-4.277979	perros	-0.07986405
-2.500372	persiana
-3.808065	persona	-0.02919957
-2.500372	personal
-3.194235	personas	-0.04311417
-4.277979	perteneciente	-0.07413113
-4.277979	pesa	-0.0801116
-4.277979	peñón	-0.07463266
-3.808065	phoebe	-0.06488632
-3.808065	picardo	-0.1348822
-2.500372	picas
-4.277979	pide	-0.07679929
-4.277979	pierdas	-0.0800291
-2.500372	piezas
-4.277979	pilar	-0.07787856
-4.277979	pillan	-0.0602798
-4.277979	pintura	-0.07953377
-3.808065	placer	-0.1357499
-4.277979	plan	-0.0602798
-3.808065	planes	-0.05660602
-3.808065	plantea	-0.1680952
-4.277979	plasmar	-0.07679929
-3.808065	plataforma	-0.06025581
-4.277979	plato	-0.04283744
-4.277979	playa	-0.08020146
-4.277979	pleno	-0.08020146
-4.277979	poblaciones	-0.07463266
-4.277979	población	-0.07663301
-4.277979	poca	-0.07953377
-3.808065	pocas	-0.06922185
-2.991747	poco	-0.01734105
-3.585705	pocos	-0.08618807
-3.347278	podemos	-0.0773337
-4.277979	poder	-0.08020146
-4.277979	poderes	-0.08015679
-4.277979	podría	-0.04283744
-4.277979	podríamos	-0.07984113
-4.277979	podía	-0.07986405
-3.808065	podíamos	-0.0797512
-4.277979	poema	-0.07663301
-4.277979	poemas	-0.06772777
-4.277979	poesía	-0.0602798
-4.277979	pole	-0.06950658
-4.277979	policía	-0.07951082
-3.081295	política	0.006332979
-4.277979	político	-0.07580065
-3.808065	políticos	-0.07834538
-4.277979	pone	-0.08015679
-4.277979	ponemos	-0.04283744
-4.277979	ponen	-0.07253912
-4.277979	ponentes	-0.07986405
-4.277979	poner	-0.0602798
-4.277979	ponerlo	-0.08020146
-4.277979	ponernos	-0.0777127
-4.277979	ponerse	-0.0602798
-4.277979	pongo	-0.06950658
-3.808065	poniendo	-0.07930082
-4.277979	ponéis	-0.07754677
-4.277979	poníamos	-0.07679929
-4.277979	poquito	-0.08000618
-2.084321	por	-0.2893707
-4.277979	porno	-0.04283744
-4.277979	pornografía	-0.07676877
-2.30042	porque	-0.0407043
-4.277979	porqué	-0.07580065
-4.277979	portada	-0.07994658
-3.585705	posible	-0.0659291
-4.277979	positiva	-0.03619221
-3.585705	positivo	-0.03083203
-4.277979	potencial	-0.07762974
-3.808065	preguntas	-0.05938371
-4.277979	preguntes	-0.07671615
-4.277979	premiado	-0.07738077
-3.808065	premio	-0.0741079
-4.277979	prensa	-0.08020146
-4.277979	preocupen	-0.06772777
-4.277979	preparada	-0.07671615
-4.277979	preparado	-0.07671615
-4.277979	prescrito	-0.07936853
-4.277979	presencia	-0.07253912
-4.277979	presenta	-0.07253912
-4.277979	presentar	-0.07834538
-4.277979	presentó	-0.08015679
-4.277979	presidencia	-0.07762974
-2.500372	presupuestos
-4.277979	prevenir	-0.0723712
-3.347278	primarias	-0.0584617
-3.808065	primer	-0.07893219
-4.277979	primera	-0.0723712
-4.277979	primeras	-0.0801116
-4.277979	primero	-0.02919957
-4.277979	principal	-0.0602798
-3.808065	principio	-0.06864467
-3.808065	principios	-0.04000879
-4.277979	prisión	-0.08020146
-4.277979	privilegios	-0.07463266
-4.277979	probablemente	-0.07870696
-3.808065	problema	-0.05723089
-4.277979	problemas	-0.07796147
-4.277979	procesados	-0.04283744
-4.277979	proceso	-0.07961636
-4.277979	producen	-0.08017855
-4.277979	producto	-0.0602798
-3.808065	productos	-0.06765822
-3.808065	profesional	-0.04043584
-3.808065	programa	-0.05728593
-4.277979	promesas	-0.08020146
-4.277979	promete	-0.07253912
-4.277979	promoción	-0.08020146
-3.808065	propia	-0.07946608
-4.277979	propiedades	-0.04283744
-2.500372	propio
-2.500372	propuesto
-4.277979	proteger	-0.0723712
-4.277979	protesta	-0.04283744
-4.277979	proteínas	-0.07463266
-3.585705	provincia	-0.05546419
-4.277979	provincial	-0.0800291
-4.277979	provincias	-0.04283744
-4.277979	provoca	-0.08020146
-2.500372	provocado
-3.808065	proyecto	-0.02105414
-4.277979	proyectos	-0.08020146
-4.277979	prueba	-0.07829296
-4.277979	próximo	-0.07994658
-4.277979	psicólogos	-0.07986405
-4.277979	pudimos	-0.08020146
-3.585705	pueblo	-0.06459858
-3.194235	puede	-0.1094979
-4.277979	pueden	-0.08015679
-3.808065	puedes	-0.0797512
-2.705827	pues	-0.03894718
-3.808065	puesto	-0.04190458
-2.917544	punto	-0.3696773
-4.277979	pérez	-0.04283744
-1.547226	que	-0.09078303
-4.277979	queda	-0.07580065
-4.277979	quedado	-0.06922185
-4.277979	quedarte	-0.08015679
-4.277979	queden	-0.08020146
-4.277979	querellado	-0.07253912
-3.808065	queremos	-0.06684692
-4.277979	querido	-0.0596432
-4.277979	quería	-0.08015679
-4.277979	quiera	-0.07912056
-4.277979	quieras	-0.06950658
-3.808065	quiere	-0.08017855
-4.277979	quieren	-0.08020146
-4.277979	quieres	-0.08020146
-3.808065	quiero	-0.06331429
-2.500372	quince
-4.277979	quinientos	-0.0800291
-3.808065	quiso	-0.07984113
-4.277979	quitarme	-0.07253912
-4.277979	quizás	-0.07969894
-3.585705	quién	-0.04085439
-4.277979	quiénes	-0.07878971
-3.081295	qué	-0.2141841
-4.277979	radio	-0.05943054
-4.277979	raikkonen	-0.0602798
-4.277979	ramos	-0.1348822
-4.277979	ramón	-0.04283744
-2.500372	razones
-2.500372	reabierto
-4.277979	real	-0.06772777
-3.808065	realidad	-0.1348822
-3.808065	realmente	-0.078661
-4.277979	recibido	-0.04283744
-2.500372	recibimos
-4.277979	recibí	-0.04283744
-4.277979	recomendable	-0.0797815
-4.277979	recomendaciones	-0.07986405
-4.277979	recomendamos	-0.07253912
-4.277979	recomendaría	-0.08020146
-4.277979	reconocimiento	-0.07829296
-4.277979	recordar	-0.08015679
-4.277979	recorren	-0.06772777
-4.277979	recuerda	-0.04283744
-3.808065	recuerdo	-0.0741079
-4.277979	recíprocos	-0.04283744
-4.277979	referido	-0.07895517
-3.808065	reflexiones	-0.07979642
-3.808065	reflexión	-0.07240105
-4.277979	regalado	-0.07605053
-4.277979	regalamos	-0.07936853
-4.277979	regalarle	-0.07605053
-3.808065	reglas	-0.02637378
-3.808065	reino	-0.1722462
-4.277979	reivindica	-0.07671615
-3.808065	reivindicar	-0.06859827
-2.500372	reivindicarlo
-2.500372	relacionado
-4.277979	relaciones	-0.08020146
-3.585705	relación	-0.03661488
-4.277979	religiosidad	-0.06772777
-4.277979	reloj	-0.08015679
-4.277979	remite	-0.08020146
-4.277979	renunciaron	-0.07321015
-2.500372	repetir
-4.277979	repetía	-0.07663301
-4.277979	repoblación	-0.07928589
-4.277979	reputación	-0.08020146
-4.277979	resentimiento	-0.0723712
-4.277979	residuales	-0.07961636
-4.277979	resines	-0.08020146
-4.277979	respecto	-0.07738077
-3.808065	responsable	-0.06025581
-4.277979	responsables	-0.07762974
-4.277979	respuesta	-0.06772777
-4.277979	resto	-0.05474139
-4.277979	resultado	-0.04283744
-4.277979	resumen	-0.04283744
-2.500372	retenciones
-2.500372	revalidar
-4.277979	revisando	-0.07787856
-3.808065	revolución	-0.08017855
-4.277979	rica	-0.07746378
-3.585705	ricardo	-0.03639899
-4.277979	risa	-0.07895517
-4.277979	riñones	-0.07895517
-4.277979	rompe	-0.07605053
-3.808065	romántico	-0.03199781
-2.500372	ronda
-2.500372	rondas
-4.277979	rosa	-0.08020146
-4.277979	roto	-0.06950658
-4.277979	ruptura	-0.07945116
-4.277979	rupturas	-0.08020146
-4.277979	rural	-0.04283744
-4.277979	rápidamente	-0.08020146
-4.277979	rápido	-0.04283744
-3.808065	río	-0.07930082
-3.585705	sabemos	-0.06340003
-3.081295	saber	-0.1846186
-3.585705	sabes	-0.07622367
-4.277979	sabiendo	-0.06772777
-4.277979	sabios	-0.07796147
-4.277979	sabor	-0.07945116
-3.585705	sabores	-0.09481741
-2.500372	sacar
-4.277979	saciedad	-0.07671615
-4.277979	salario	-0.1722462
-4.277979	salarios	-0.07580065
-4.277979	saldremos	-0.0801116
-4.277979	salida	-0.07762974
-4.277979	salsas	-0.07253912
-4.277979	saludando	-0.07321015
-4.277979	saludar	-0.07321015
-4.277979	salvado	-0.07994658
-4.277979	salvando	-0.07787856
-4.277979	salvo	-0.07754677
-4.277979	salí	-0.08020146
-4.277979	sancionado	-0.07663301
-4.277979	sanción	-0.04283744
-3.808065	sara	-0.1722462
-4.277979	sañudo	-0.04283744
-2.481755	se	-0.09199054
-2.917544	sea	-0.008788675
-4.277979	seamos	-0.07605053
-3.585705	sean	-0.07766664
-4.277979	sección	-0.06772777
-2.500372	secretario
-4.277979	seducir	-0.04283744
-4.277979	seguimos	-0.0801116
-4.277979	seguirle	-0.06772777
-4.277979	segundo	-0.07762974
-4.277979	segundos	-0.04283744
-3.808065	seguro	-0.1597725
-3.585705	seguros	-0.07564047
-4.277979	segurísimo	-0.04283744
-4.277979	según	-0.08015679
-3.808065	seis	-0.0694831
-3.808065	selección	-0.0802016
-3.585705	semana	-0.0188757
-3.808065	semanas	-0.06451308
-3.808065	sembrar	-0.04145396
-4.277979	sencillo	-0.07796147
-4.277979	sentimentales	-0.07796147
-4.277979	sentimientos	-0.08020146
-4.277979	sepa	-0.0602798
-2.705827	ser	-0.1476849
-4.277979	serios	-0.07605053
-4.277979	servicios	-0.08020146
-4.277979	seré	-0.08015679
-3.808065	sería	-0.0682904
-3.808065	sesenta	-0.07451843
-4.277979	sesiones	-0.07762974
-4.277979	setecientos	-0.08020146
-4.277979	setenta	-0.07663301
-4.277979	sexualidad	-0.04064164
-4.277979	señalado	-0.07787856
-4.277979	señalar	-0.06772777
-4.277979	señor	-0.06772777
-2.457442	si	-0.08881873
-3.808065	sido	-0.04239478
-3.194235	siempre	-0.05946149
-3.808065	siendo	-0.03445458
-4.277979	siente	-0.08020146
-3.347278	siete	-0.07685171
-4.277979	siga	-0.0801116
-4.277979	sigan	-0.07969894
-3.808065	siglo	-0.08622929
-3.808065	significa	-0.07893219
-3.585705	sigue	-0.07932265
-4.277979	siguiente	-0.06772777
-2.500372	siguiéndola
-4.277979	silex	-0.07994658
-4.277979	simi	-0.08020146
-4.277979	simplemente	-0.07903787
-2.854189	sin	-0.1081863
-4.277979	sinceramente	-0.07796147
-4.277979	sincero	-0.07321015
-3.808065	sino	-0.06913726
-4.277979	sinvivir	-0.04283744
-4.277979	sirva	-0.08015679
-4.277979	sirve	-0.04283744
-3.585705	sitio	-0.07541351
-4.277979	sitios	-0.07994658
-4.277979	snowboard	-0.08015679
-4.277979	sobra	-0.04283744
-3.081295	sobre	-0.06621129
-2.500372	social
-4.277979	socialista	-0.08015679
-4.277979	sociedades	-0.08020146
-4.277979	sofá	-0.07463266
-4.277979	sol	-0.04283744
-3.808065	solamente	-0.07015132
-4.277979	solas	-0.0800291
-3.808065	solo	-0.1236547
-4.277979	solucionar	-0.04283744
-4.277979	solución	-0.06761171
-4.277979	solía	-0.08020146
-3.347278	somos	-0.07720633
-2.564114	son	-0.09514595
-4.277979	sonido	-0.08015679
-4.277979	sopor	-0.07994658
-4.277979	sorprende	-0.07679929
-4.277979	sorprender	-0.07738077
-4.277979	sorprendido	-0.06772777
-4.277979	sostenibilidad	-0.08020146
-3.585705	soy	-0.06018508
-4.277979	stop	-0.0801116
-2.595446	su	-0.09346216
-2.500372	sucedido
-4.277979	sueca	-0.07961636
-4.277979	suecia	-0.04283744
-3.585705	sueco	-0.101052
-3.808065	suerte	-0.07234037
-2.500372	sumar
-4.277979	super	-0.07994658
-4.277979	superpoblada	-0.04283744
-4.277979	superviviencia	-0.07895517
-4.277979	suplente	-0.07986405
-4.277979	supongo	-0.06772777
-4.277979	supuesto	-0.07376572
-4.277979	supuestos	-0.08020146
-3.808065	sur	-0.07951082
-3.081295	sus	-0.07999706
-4.277979	suspensión	-0.06025581
-4.277979	suyo	-0.07463266
-4.277979	suyos	-0.04283744
-3.808065	sábado	-0.1294675
-4.277979	sánchez	-0.07895517
-3.808065	sé	-0.3256586
-2.749879	sí	-0.2534982
-2.749879	sólo	-0.07060714
-4.277979	taiwán	-0.07986405
-4.277979	tajo	-0.07463266
-3.808065	tal	-0.07101699
-4.277979	talento	-0.07463266
-2.334678	también	-0.02310932
-4.277979	tampoco	-0.0800291
-3.081295	tan	-0.07875899
-3.194235	tanto	-0.06717505
-4.277979	tapan	-0.07787856
-3.347278	tarde	-0.01563233
-4.277979	tasa	-0.04283744
-2.705827	te	-0.161688
-4.277979	tecnologías	-0.0602798
-4.277979	telediario	-0.0801116
-3.808065	tema	-0.0596432
-4.277979	temblando	-0.07945116
-4.277979	temen	-0.08020146
-4.277979	tendencias	-0.07738077
-4.277979	tendrá	-0.06772777
-4.277979	tendrán	-0.06772777
-4.277979	tendrás	-0.07253912
-4.277979	tendré	-0.06772777
-2.917544	tenemos	-0.08546673
-2.991747	tener	-0.1623219
-4.277979	tenga	-0.08020146
-3.808065	tengamos	-0.0800892
-4.277979	tengo	-0.06772777
-4.277979	tenido	-0.07754677
-4.277979	tenía	-0.0797815
-4.277979	teoría	-0.0602798
-4.277979	tercer	-0.08015679
-4.277979	tercera	-0.0801116
-4.277979	terminar	-0.04283744
-4.277979	territorio	-0.07253912
-4.277979	terrorismo	-0.07413113
-2.665834	teruel	-0.1509352
-3.808065	test	-0.07393311
-4.277979	tevez	-0.0801116
-4.277979	teóricos	-0.0602798
-4.277979	thain	-0.07969894
-4.277979	ti	-0.07605053
-3.081295	tiempo	-0.05555658
-3.808065	tiempos	-0.04037054
-4.277979	tiendas	-0.0800291
-2.457442	tiene	-0.1643496
-3.194235	tienen	-0.02780497
-3.585705	tienes	-0.02907277
-4.277979	tierra	-0.0602798
-4.277979	tipos	-0.04283744
-4.277979	tiró	-0.07663301
-4.277979	toca	-0.07986405
-3.347278	toda	-0.2985095
-3.585705	todas	-0.1367922
-4.277979	todavía	-0.07413113
-2.705827	todo	-0.1637667
-2.917544	todos	-0.1222153
-3.808065	tom	-0.04281247
-4.277979	toma	-0.0723712
-4.277979	tomando	-0.07821011
-4.277979	tomar	-0.07738077
-4.277979	tomaría	-0.07746378
-4.277979	tome	-0.07895517
-3.808065	toni	-0.6407666
-4.277979	top	-0.0602798
-4.277979	total	-0.04905176
-4.277979	totales	-0.06772777
-4.277979	totalmente	-0.08020146
-3.808065	trabajado	-0.07843561
-4.277979	trabajando	-0.07845861
-4.277979	trabajo	-0.08020146
-3.808065	tractor	-0.04264089
-4.277979	tractores	-0.07605053
-4.277979	tractoristas	-0.04283744
-4.277979	tramo	-0.07580065
-3.808065	tramos	-0.067187
-3.808065	tranquilo	-0.076935
-4.277979	transitoria	-0.07413113
-4.277979	transmitir	-0.07253912
-4.277979	tras	-0.04283744
-2.500372	trasladado
-4.277979	traslado	-0.08015679
-4.277979	tratamos	-0.0602798
-4.277979	tratar	-0.07735772
-4.277979	traten	-0.0602798
-4.277979	través	-0.1523245
-2.500372	trayecto
-4.277979	traza	-0.0723712
-4.277979	trazado	-0.0797815
-4.277979	trazas	-0.0602798
-4.277979	traído	-0.07936853
-3.585705	treinta	-0.07079513
-3.194235	tren	-0.1953074
-4.277979	trenes	-0.04283744
-2.991747	tres	-0.0659892
-4.277979	triviales	-0.0602798
-4.277979	triángulo	-0.05981611
-2.500372	tráfico
-2.917544	tu	-0.09657365
-3.585705	turismo	-0.1019599
-3.808065	turolenses	-0.07983375
-4.277979	turrón	-0.04283744
-4.277979	turística	-0.08020146
-4.277979	tus	-0.08020146
-4.277979	tuvo	-0.07986405
-4.277979	técnica	-0.0602798
-3.585705	tú	-0.0483258
-2.019335	un	-0.1288729
-2.104827	una	-0.1751294
-3.081295	unas	-0.103977
-4.277979	unidas	-0.07663301
-4.277979	unido	-0.0694831
-4.277979	unidos	-0.04283744
-4.277979	unir	-0.08020146
-4.277979	universidad	-0.1523245
-3.194235	uno	-0.09262069
-2.917544	unos	-0.07378691
-4.277979	urbanismo	-0.07878971
-4.277979	usar	-0.07961636
-4.277979	uso	-0.0602798
-3.585705	usted	-0.07449525
-2.705827	ustedes	-0.05190623
-4.277979	utilice	-0.0723712
-4.277979	utiliza	-0.08020146
-4.277979	utilizas	-0.0723712
-4.277979	utilizáramos	-0.04283744
-2.917544	va	-0.5428628
-4.277979	vacuna	-0.07762974
-4.277979	vacuno	-0.0699515
-4.277979	vagón	-0.08015679
-4.277979	vale	-0.07577751
-2.991747	valencia	-0.05353407
-4.277979	valoración	-0.07580065
-4.277979	valorado	-0.0723712
-4.277979	valoramos	-0.07829296
-2.917544	vamos	-0.73599
-3.808065	van	-0.1317397
-4.277979	vano	-0.0602798
-4.277979	vasos	-0.08015679
-4.277979	ve	-0.07701809
-3.585705	veces	-0.07436826
-3.081295	veinte	-0.05648408
-4.277979	veinticinco	-0.1523245
-3.808065	veintidós	-0.06016173
-3.808065	veintinueve	-0.04276379
-4.277979	veintitrés	-0.0602798
-4.277979	veintiuno	-0.0800291
-3.347278	velocidad	-0.2555367
-4.277979	velocidades	-0.04283744
-4.277979	vendemos	-0.07413113
-3.808065	vendrá	-0.06879871
-4.277979	vendía	-0.08020146
-3.808065	venga	-0.04133068
-4.277979	vengo	-0.07994658
-3.585705	venido	-0.07155301
-3.808065	venimos	-0.06020904
-4.277979	venir	-0.07321015
-4.277979	ventaja	-0.04283744
-4.277979	ventajosos	-0.07671615
-4.277979	ventana	-0.07945116
-4.277979	ver	-0.07986405
-2.854189	verdad	-0.4004903
-4.277979	vernos	-0.04283744
-3.808065	versiones	-0.1348822
-3.808065	versión	-0.06488632
-4.277979	vertidas	-0.07738077
-4.277979	vertidos	-0.08020146
-4.277979	verán	-0.07796147
-4.277979	veterinaria	-0.0602798
-3.194235	vez	-0.03308409
-4.277979	veía	-0.07928589
-4.277979	viaja	-0.06950658
-2.500372	victoria
-3.585705	vida	-0.2016703
-4.277979	viene	-0.08015679
-4.277979	vienes	-0.0602798
-2.991747	viernes	-0.05600721
-4.277979	vih	-0.04283744
-4.277979	vimos	-0.07986405
-3.808065	viniendo	-0.07867657
-4.277979	virtud	-0.04283744
-4.277979	visibilidad	-0.07671615
-4.277979	visitamos	-0.07738077
-4.277979	visitas	-0.08020146
-3.808065	vista	-0.07923261
-4.277979	vistazo	-0.07804437
-3.808065	visto	-0.1116781
-4.277979	viva	-0.08020146
-3.347278	vive	-0.1003366
-4.277979	vivido	-0.07961636
-4.277979	vivimos	-0.06950658
-3.081295	vivir	-0.3207995
-4.277979	vocación	-0.08015679
-4.277979	vocal	-0.0602798
-3.347278	vodafone	-0.08577943
-3.585705	volver	-0.06485499
-4.277979	volvernos	-0.07321015
-4.277979	votante	-0.08020146
-3.585705	voy	-0.06596432
-4.277979	voz	-0.04283744
-4.277979	vuelta	-0.07735772
-4.277979	vuelto	-0.07321015
-2.500372	vuelva
-4.277979	vínculo	-0.07679929
-4.277979	wine	-0.08020146
-3.808065	xxi	-0.02328197
-4.277979	xxii	-0.07986405
-4.277979	xxxvi	-0.08020146
-4.277979	xxxvii	-0.08020146
-4.277979	xxxviii	-0.04283744
-1.893034	y	-0.0432519
-2.595446	ya	-0.1021453
-4.277979	yang	-0.04283744
-4.277979	yin	-0.07463266
-2.457442	yo	-0.3003793
-2.917544	zaragoza	-0.1638052
-4.277979	zaragozana	-0.0801116
-2.500372	zona
-4.277979	zonas	-0.08020146
-2.500372	álvarez
-2.500372	ángel
-4.277979	árboles	-0.08015679
-3.808065	él	-0.04253468
-3.808065	éste	-0.06633632
-4.277979	íbamos	-0.07321015
-4.277979	órganos	-0.08020146
-4.277979	última	-0.04271454
-4.277979	último	-0.08015566
-4.277979	único	-0.0797815

\2-grams:
-1.865939	<s> a
-3.534149	<s> adaptar
-3.534149	<s> además
-3.534149	<s> ae3
-3.534149	<s> afortunadamente
-3.534149	<s> agradecidos
-3.534149	<s> alarde
-3.534149	<s> alcaldesa
-3.534149	<s> algo
-2.945014	<s> algunos
-3.534149	<s> algún
-3.534149	<s> allá
-3.534149	<s> ambos
-2.174966	<s> amor
-3.534149	<s> antes
-3.534149	<s> antonio
-3.534149	<s> apoyando
-2.945014	<s> aquí
-3.534149	<s> así
-3.534149	<s> atiende
-3.534149	<s> avellana
-3.534149	<s> ayer
-2.945014	<s> bien
-2.174966	<s> bueno
-2.492447	<s> buenos
-3.534149	<s> buje
-2.945014	<s> cada
-3.534149	<s> cadena
-3.534149	<s> cero
-3.534149	<s> cinco
-3.534149	<s> cine
-2.305319	<s> claro
-3.534149	<s> colegio
-2.305319	<s> como
-2.492447	<s> con
-3.534149	<s> conecta
-3.534149	<s> configuración
-2.945014	<s> congreso
-3.534149	<s> conoce
-3.534149	<s> consejo
-3.534149	<s> convertido
-3.534149	<s> convirtiéndolos
-3.534149	<s> creando
-2.305319	<s> creo
-3.534149	<s> cualquier
-3.534149	<s> cuando
-3.534149	<s> cuatro
-3.534149	<s> cultura
-3.534149	<s> cursos
-3.534149	<s> darías
-1.534405	<s> de
-3.534149	<s> decimosexto
-3.534149	<s> decir
-3.534149	<s> declarando
-3.534149	<s> decía
-3.534149	<s> dejó
-2.945014	<s> del
-3.534149	<s> den
-3.534149	<s> densidad
-3.534149	<s> denuncia
-3.534149	<s> deportes
-3.534149	<s> descubre
-3.534149	<s> desde
-3.534149	<s> di
-3.534149	<s> diez
-3.534149	<s> diferencia
-3.534149	<s> dificultar
-3.534149	<s> digamos
-3.534149	<s> donde
-3.534149	<s> durante
-3.534149	<s> día
-2.174966	<s> eh
-3.534149	<s> ejemplo
-1.30093	<s> el
-3.534149	<s> elevadas
-3.534149	<s> ellos
-2.945014	<s> emma
-1.865939	<s> en
-3.534149	<s> enfadado
-3.534149	<s> enfrentar
-3.534149	<s> enorme
-2.945014	<s> entonces
-3.534149	<s> entrega
-3.534149	<s> eres
-1.619518	<s> es
-3.534149	<s> escuchar
-3.534149	<s> escuchen
-2.492447	<s> ese
-2.492447	<s> eso
-3.534149	<s> esos
-2.492447	<s> españa
-2.305319	<s> esta
-3.534149	<s> estacionamiento
-3.534149	<s> estaciones
-3.534149	<s> estamos
-3.534149	<s> estas
-2.945014	<s> este
-2.492447	<s> esto
-2.492447	<s> está
-3.534149	<s> estábamos
-3.534149	<s> estás
-3.534149	<s> evaluar
-3.534149	<s> existe
-3.534149	<s> explicarlos
-3.534149	<s> fallido
-2.945014	<s> fernando
-3.534149	<s> fijo
-3.534149	<s> finales
-2.945014	<s> forma
-3.534149	<s> formaba
-3.534149	<s> formaban
-3.534149	<s> frío
-3.534149	<s> fue
-3.534149	<s> fácilmente
-3.534149	<s> gran
-3.534149	<s> ha
-3.534149	<s> habla
-3.534149	<s> hablaron
-3.534149	<s> hace
-3.534149	<s> hacia
-3.534149	<s> hari
-3.534149	<s> hará
-2.492447	<s> hay
-3.534149	<s> hecho
-3.534149	<s> hizo
-3.534149	<s> hola
-3.534149	<s> holanda
-1.993527	<s> hoy
-3.534149	<s> igual
-3.534149	<s> ilusionan
-3.534149	<s> importante
-3.534149	<s> imágenes
-3.534149	<s> inconcebible
-3.534149	<s> introduciendo
-3.534149	<s> invita
-3.534149	<s> invito
-3.534149	<s> ir
-3.534149	<s> joven
-3.534149	<s> jurado
-1.46327	<s> la
-2.945014	<s> las
-3.534149	<s> le
-3.534149	<s> leer
-3.534149	<s> leyenda
-3.534149	<s> llegará
-1.813907	<s> lo
-3.534149	<s> localizado
-2.174966	<s> los
-2.945014	<s> línea
-2.945014	<s> madrid
-2.945014	<s> madrugada
-3.534149	<s> mari
-2.945014	<s> matrimonios
-2.174966	<s> me
-3.534149	<s> mejor
-3.534149	<s> mente
-3.534149	<s> mi
-3.534149	<s> momento
-3.534149	<s> muchas
-3.534149	<s> muchos
-2.945014	<s> muy
-2.492447	<s> más
-3.534149	<s> navarrete
-3.534149	<s> niños
-1.687214	<s> no
-3.534149	<s> nombre
-3.534149	<s> normalmente
-2.492447	<s> nos
-3.534149	<s> nosotros
-3.534149	<s> nueve
-3.534149	<s> observatorio
-3.534149	<s> ocho
-3.534149	<s> ochocientos
-3.534149	<s> odio
-3.534149	<s> oyentes
-3.534149	<s> para
-3.534149	<s> partidario
-3.534149	<s> pasa
-3.534149	<s> pasado
-3.534149	<s> pasar
-3.534149	<s> peligro
-3.534149	<s> pensar
-1.925064	<s> pero
-3.534149	<s> pilar
-3.534149	<s> plantea
-2.305319	<s> poco
-3.534149	<s> pocos
-3.534149	<s> política
-1.72548	<s> por
-2.945014	<s> porque
-3.534149	<s> posible
-3.534149	<s> primer
-3.534149	<s> probablemente
-3.534149	<s> productos
-3.534149	<s> promete
-3.534149	<s> provincia
-3.534149	<s> provincial
-3.534149	<s> prueba
-3.534149	<s> puede
-2.945014	<s> pues
-1.316247	<s> que
-1.993527	<s> qué
-2.945014	<s> realmente
-3.534149	<s> reglas
-3.534149	<s> renunciaron
-3.534149	<s> repetía
-2.945014	<s> ricardo
-3.534149	<s> sabores
-3.534149	<s> saciedad
-3.534149	<s> salarios
-3.534149	<s> saldremos
-1.993527	<s> se
-3.534149	<s> sembrar
-2.945014	<s> ser
-3.534149	<s> si
-3.534149	<s> siete
-3.534149	<s> sigue
-3.534149	<s> silex
-2.945014	<s> sin
-2.945014	<s> son
-3.534149	<s> sánchez
-3.534149	<s> sé
-2.305319	<s> sí
-2.945014	<s> sólo
-3.534149	<s> también
-2.945014	<s> tan
-3.534149	<s> tanto
-3.534149	<s> tarde
-2.945014	<s> te
-3.534149	<s> tendré
-2.945014	<s> tenemos
-3.534149	<s> tener
-3.534149	<s> terminar
-2.945014	<s> teruel
-2.492447	<s> tiene
-3.534149	<s> todas
-2.305319	<s> todo
-3.534149	<s> tom
-3.534149	<s> toni
-3.534149	<s> trabajado
-3.534149	<s> trabajando
-3.534149	<s> transitoria
-3.534149	<s> tras
-3.534149	<s> treinta
-3.534149	<s> tren
-2.945014	<s> tres
-3.534149	<s> turolenses
-1.767447	<s> un
-2.492447	<s> una
-3.534149	<s> uno
-3.534149	<s> unos
-3.534149	<s> ustedes
-2.945014	<s> va
-2.945014	<s> vale
-3.534149	<s> valencia
-3.534149	<s> valorado
-3.534149	<s> vamos
-2.945014	<s> van
-3.534149	<s> vendía
-3.534149	<s> verdad
-3.534149	<s> vida
-3.534149	<s> viernes
-3.534149	<s> vimos
-3.534149	<s> viniendo
-3.534149	<s> visitamos
-3.534149	<s> vive
-3.534149	<s> vodafone
-3.534149	<s> votante
-3.534149	<s> voz
-3.534149	<s> xxi
-1.865939	<s> y
-2.945014	<s> ya
-2.074839	<s> yo
-3.534149	<s> él
-2.866395	a </s>
-2.27726	a acompañar
-2.866395	a apoyar
-2.866395	a bajar
-2.866395	a buscarlo
-2.866395	a cabo
-2.866395	a caer
-2.866395	a canarias
-2.866395	a cara
-2.866395	a casa
-2.27726	a celebrar
-2.866395	a clase
-2.866395	a conocer
-2.866395	a continuar
-2.866395	a dar
-2.866395	a decir
-2.866395	a dejar
-2.866395	a dormir
-2.27726	a empezar
-2.866395	a encontrar
-2.866395	a entender
-2.866395	a escribir
-2.866395	a ese
-1.824692	a españa
-2.866395	a esta
-2.27726	a este
-2.866395	a forma
-2.866395	a guardar
-2.27726	a hablar
-2.866395	a han
-2.866395	a hoy
-2.866395	a insistir
-2.866395	a ir
-1.099692	a la
-1.407085	a las
-2.866395	a llenar
-2.27726	a lo
-1.198184	a los
-2.866395	a luchar
-2.866395	a madrid
-2.866395	a medio
-2.866395	a medir
-2.866395	a menos
-2.866395	a menudo
-2.866395	a muchas
-2.866395	a muchísima
-1.824692	a mí
-2.866395	a nuestros
-2.866395	a ocho
-2.866395	a otros
-2.866395	a partir
-2.866395	a pasar
-2.866395	a phoebe
-2.866395	a poco
-2.866395	a prevenir
-2.866395	a principios
-2.866395	a que
-2.866395	a quién
-2.866395	a qué
-2.866395	a reivindica
-2.866395	a risa
-2.866395	a sembrar
-2.27726	a ser
-2.866395	a sorprender
-1.637565	a su
-2.866395	a teruel
-2.866395	a toda
-2.866395	a todo
-2.27726	a todos
-2.27726	a través
-2.866395	a treinta
-2.27726	a tu
-2.866395	a tus
-2.866395	a un
-1.824692	a veces
-2.27726	a veinte
-2.866395	a veintinueve
-2.866395	a vernos
-2.27726	a viernes
-2.866395	a visitas
-0.7729729	abajo hacia
-0.7729729	abismos </s>
-0.7729729	abrazo grande
-0.7729729	abre el
-0.7729729	abrió </s>
-0.7729729	acaba de
-0.7729729	acabó la
-0.7729729	acero de
-0.7729729	aclara qué
-0.7729729	acogedora y
-0.484868	acompaña </s>
-1.074003	acompañar en
-1.074003	acompañar este
-0.7729729	acompañándonos esta
-1.250094	acostumbrados a
-1.250094	acostumbrados unas
-1.250094	acostumbrados yo
-0.7729729	actualidad </s>
-0.7729729	actualizada al
-0.7729729	actuar cuando
-1.471943	acuerdo </s>
-1.471943	acuerdo con
-1.471943	acuerdo entre
-1.471943	acuerdo para
-1.471943	acuerdo perfectamente
-0.7729729	adaptan a
-0.7729729	adaptar </s>
-0.7729729	adaptativa con
-0.7729729	adecuadas </s>
-1.074003	adelantaba </s>
-1.074003	adelantaba verdad
-0.7729729	adelantar al
-0.7729729	adelantase a
-0.6609593	adelante </s>
-1.250094	adelante con
-0.7729729	adelanté al
-0.9619893	además de
-1.551124	además donde
-1.551124	además gol
-1.551124	además la
-1.551124	además que
-1.074003	aderezo con
-1.074003	aderezo sirva
-0.7729729	adicional en
-0.7729729	adiós </s>
-1.074003	administraciones </s>
-1.074003	administraciones en
-0.7729729	administración central
-0.7729729	adrian miranda
-0.7729729	adís escuchando
-0.7729729	ae3 tiempo
-0.7729729	aeroportuaria </s>
-0.7729729	afecta como
-0.7729729	afectuosos </s>
-0.7729729	afortunadamente </s>
-0.7729729	agilidad al
-0.7729729	agosto </s>
-0.7729729	agradables </s>
-0.7729729	agradecer también
-0.7729729	agradecidos </s>
-0.7729729	agricultura </s>
-0.7729729	agromán de
-1.074003	agua </s>
-1.074003	agua junto
-1.074003	aguas fecales
-1.074003	aguas residuales
-0.7729729	agujero </s>
-1.618071	ahora con
-1.618071	ahora en
-1.618071	ahora esa
-1.618071	ahora está
-1.618071	ahora historia
-1.618071	ahora que
-1.618071	ahora un
-1.471943	ahí </s>
-1.471943	ahí bipartita
-1.471943	ahí en
-1.471943	ahí es
-1.471943	ahí no
-2.352757	al alcance
-2.352757	al año
-2.352757	al blanqueo
-2.352757	al carecer
-2.352757	al comienzo
-2.352757	al completo
-2.352757	al comprar
-2.352757	al congreso
-2.352757	al corte
-2.352757	al desarrollo
-1.763622	al domingo
-2.352757	al estudio
-1.763622	al final
-2.352757	al frente
-2.352757	al internet
-1.763622	al jamón
-2.352757	al manzanares
-2.352757	al menos
-2.352757	al minuto
-2.352757	al mundo
-2.352757	al narcotráfico
-2.352757	al otro
-2.352757	al pasar
-2.352757	al pone
-2.352757	al proceso
-1.763622	al que
-2.352757	al río
-2.352757	al sofá
-2.352757	al son
-2.352757	al sábado
-2.352757	al tema
-2.352757	al tractoristas
-1.763622	al tren
-0.7729729	alarde con
-0.7729729	albergando una
-1.183838	alcaldesa </s>
-0.7312708	alcaldesa de
-1.772973	alcaldesa en
-1.772973	alcaldesa este
-1.772973	alcaldesa hacen
-1.772973	alcaldesa la
-1.772973	alcaldesa lo
-0.7729729	alcance de
-0.7729729	alcanzado un
-0.7729729	alcanzo a
-0.7729729	alcántara el
-0.7729729	alemania </s>
-1.551124	algo ahora
-1.551124	algo demuestran
-1.551124	algo muy
-1.551124	algo positivo
-0.9619893	algo que
-1.250094	alguien es
-1.250094	alguien les
-1.250094	alguien lo
-1.250094	alguna </s>
-1.250094	alguna cosa
-1.250094	alguna forma
-0.484868	algunas semanas
-1.375033	algunos casos
-1.375033	algunos es
-1.375033	algunos las
-1.375033	algunos lugares
-1.250094	algún día
-1.250094	algún información
-1.250094	algún telediario
-0.7729729	alimentación aquí
-0.7729729	alimentarias y
-1.074003	alimentos de
-1.074003	alimentos procesados
-0.3333308	allá de
-1.375033	allá y
-0.7729729	allí </s>
-0.7729729	almendra bueno
-1.074003	alto contenido
-1.074003	alto de
-0.7729729	altura de
-0.7729729	alérgenos </s>
-0.7729729	ama tanto
-0.7729729	amable acogedora
-0.7729729	amables </s>
-0.7729729	amado y
-0.7729729	amanecer eso
-0.484868	amantes de
-0.7729729	amar </s>
-0.7729729	amaño </s>
-1.074003	ambiente en
-1.074003	ambiente y
-0.7729729	ambos casos
-0.7729729	amejoramiento y
-1.074003	amiga asistido
-1.074003	amiga phoebe
-1.250094	amigo al
-1.250094	amigo de
-1.250094	amigo las
-1.074003	amigos deben
-1.074003	amigos míos
-1.250094	amistad </s>
-1.250094	amistad en
-1.250094	amistad sería
-1.375033	amo es
-1.375033	amo in
-0.785898	amo tanto
-0.8451295	amor </s>
-1.412512	amor a
-2.454214	amor abrió
-2.454214	amor adelante
-2.454214	amor al
-1.865079	amor con
-2.454214	amor contemporáneos
-2.454214	amor cuáles
-2.454214	amor de
-2.454214	amor debe
-2.454214	amor decían
-2.454214	amor donde
-2.454214	amor durante
-2.454214	amor el
-1.412512	amor es
-2.454214	amor está
-2.454214	amor igual
-2.454214	amor incondicional
-2.454214	amor invitarnos
-2.454214	amor jamás
-2.454214	amor la
-2.454214	amor loco
-2.454214	amor no
-2.454214	amor paterno
-2.454214	amor pensamos
-2.454214	amor pero
-1.865079	amor por
-2.454214	amor protesta
-1.412512	amor romántico
-2.454214	amor si
-2.454214	amor sin
-2.454214	amor vendrá
-2.454214	amor y
-0.7729729	amy </s>
-0.7729729	anecdóticas pero
-0.7729729	anemia y
-0.7729729	aniversario hace
-0.7729729	anotó eh
-0.7729729	antanas </s>
-1.250094	ante ese
-1.250094	ante la
-1.250094	ante ricardo
-0.7729729	anterioridad en
-1.375033	antes </s>
-1.375033	antes de
-1.375033	antes los
-1.375033	antes muchísima
-0.7729729	antiguos que
-1.074003	antonio marcos
-1.074003	antonio resines
-1.074003	anuncio de
-1.074003	anuncio que
-1.074003	aparece en
-1.074003	aparece más
-0.7729729	aparecen en
-1.074003	aparecieron en
-1.074003	aparecieron incluso
-0.7729729	apenas darte
-0.7729729	apoyando la
-0.7729729	apoyar el
-0.7729729	aprendemos a
-0.7729729	aprobó en
-0.7729729	aprovecha la
-0.7729729	aprovechar el
-0.7729729	apuntar </s>
-0.7729729	apunte más
-0.7729729	aquella famosísima
-1.074003	aquellas imágenes
-1.074003	aquellas personas
-1.886916	aquí </s>
-1.886916	aquí a
-1.886916	aquí así
-1.297781	aquí con
-1.886916	aquí de
-1.297781	aquí en
-1.886916	aquí lo
-1.886916	aquí no
-1.886916	aquí para
-1.886916	aquí tenemos
-1.886916	aquí y
-0.7729729	arado en
-0.7729729	aragón </s>
-0.7729729	arboleda </s>
-0.7729729	ares </s>
-0.7729729	arrepentirás douglas
-0.1462035	arroba cadena
-0.7729729	arés </s>
-0.7729729	aseguró hace
-0.7729729	asesinato de
-0.7729729	asesor con
-0.7729729	asesoramiento que
-0.7729729	asesores como
-0.7729729	asistido hubiese
-0.7729729	aspiramos </s>
-0.7729729	astrofísica </s>
-1.727215	así es
-1.727215	así estamos
-1.727215	así las
-1.727215	así no
-1.727215	así nos
-0.498386	así que
-0.7729729	atiende esta
-1.074003	atractivo como
-1.074003	atractivo con
-0.7729729	au sur
-0.7729729	auditorio que
-0.7729729	aumentaran </s>
-0.7729729	automático marca
-0.7729729	autor también
-0.7729729	autovía </s>
-1.074003	avance el
-1.074003	avance la
-0.7729729	ave tiene
-1.074003	avellana la
-1.074003	avellana vendrá
-0.7729729	aviones algo
-1.074003	ayer en
-1.074003	ayer me
-0.484868	ayuntamiento de
-0.7729729	añade picardo
-1.551124	año dedicado
-0.9619893	año dos
-1.551124	año ha
-1.551124	año lanzamos
-1.551124	año porque
-1.471943	años el
-1.471943	años haciendo
-1.471943	años los
-1.471943	años luchando
-1.471943	años porque
-0.7729729	aún no
-0.7729729	bajar rápidamente
-0.7729729	bancos </s>
-0.7729729	barrio de
-0.7729729	base con
-0.7729729	bastante discutido
-0.7729729	bbc </s>
-1.250094	bbva </s>
-1.250094	bbva one
-1.250094	bbva tienes
-0.7729729	beaton </s>
-0.7729729	beautiful de
-1.074003	bella historia
-1.074003	bella moza
-0.7729729	belleza </s>
-0.7729729	beneficia cobijó
-0.7729729	berlín ahí
-0.7729729	beso muy
-0.7729729	bestia </s>
-0.9617198	bien </s>
-2.003422	bien albergando
-2.003422	bien alto
-2.003422	bien cocinada
-2.003422	bien dices
-2.003422	bien en
-2.003422	bien es
-2.003422	bien este
-2.003422	bien ha
-2.003422	bien nacidos
-2.003422	bien no
-1.414287	bien que
-2.003422	bien sea
-2.003422	bien volver
-0.7729729	bienestar </s>
-0.7729729	bienvenidos también
-0.7729729	bigas luna
-0.7729729	biomasa </s>
-0.7729729	bipartita hay
-0.7729729	biólogos y
-0.1047628	black friday
-1.772973	black i
-0.7729729	blanqueo de
-0.7729729	bonificación de
-0.7729729	bonitas la
-0.7729729	boris izaguirre
-0.7729729	breve segundos
-0.7729729	brexit pasado
-1.250094	buen humor
-1.250094	buen plan
-1.250094	buen resultado
-1.074003	buena fe
-1.074003	buena la
-1.074003	buenas </s>
-1.074003	buenas otros
-0.9591169	bueno </s>
-2.187946	bueno confundir
-2.187946	bueno el
-2.187946	bueno esto
-2.187946	bueno habría
-2.187946	bueno more
-1.146244	bueno no
-2.187946	bueno para
-2.187946	bueno parece
-0.9591169	bueno pues
-1.598811	bueno que
-2.187946	bueno serios
-2.187946	bueno son
-2.187946	bueno sí
-2.187946	bueno volver
-2.187946	bueno ya
-2.187946	bueno yo
-0.1047628	buenos días
-1.772973	buenos tiempos
-0.7729729	buje la
-0.7729729	busca un
-0.7729729	buscando versiones
-0.7729729	buscarlo bueno
-0.7729729	busco en
-0.7729729	busquen un
-0.7729729	cabida mora
-0.7729729	cabo pero
-1.852154	cada año
-1.263019	cada cinco
-1.263019	cada día
-1.852154	cada persona
-1.852154	cada portada
-1.852154	cada segundo
-1.852154	cada tarde
-1.263019	cada vez
-1.852154	cada viernes
-1.886916	cadena </s>
-0.07824766	cadena ser
-0.7729729	cadenas </s>
-0.7729729	caer el
-0.7729729	caiwza </s>
-0.7729729	cale </s>
-0.7729729	calen </s>
-0.7729729	calendario del
-1.676063	calidad </s>
-1.676063	calidad científica
-0.6343608	calidad de
-1.676063	calidad dudosa
-1.676063	calidad la
-1.676063	calidad literaria
-0.7729729	calma </s>
-0.7729729	cambia </s>
-0.7729729	camino </s>
-1.074003	campo bien
-1.074003	campo muy
-1.074003	campos a
-1.074003	campos es
-1.471943	canarias con
-1.471943	canarias en
-1.471943	canarias la
-1.471943	canarias les
-1.471943	canarias rosa
-1.074003	candidato a
-1.074003	candidato de
-0.7729729	cantantes y
-0.7729729	cantidades adecuadas
-0.7729729	capaz de
-0.7729729	capeando con
-0.6609593	capital de
-1.250094	capital las
-0.7729729	capitales </s>
-0.7729729	capricho como
-1.074003	cara a
-1.074003	cara al
-0.7729729	carecer de
-0.7729729	caretas de
-1.074003	carles </s>
-1.074003	carles francino
-0.7729729	carlos ortiz
-0.7729729	carmena </s>
-0.2083921	carne de
-0.7729729	carácter </s>
-1.074003	casa desde
-1.074003	casa recuerda
-0.7729729	casan en
-0.7729729	cascos escuchando
-1.074003	caso con
-1.074003	caso por
-1.074003	casos </s>
-1.074003	casos a
-0.7729729	casualidad la
-0.7729729	catedrática de
-0.7729729	categoría sólo
-0.7729729	catorce cuarenta
-0.484868	catálogo de
-0.7729729	catón significa
-0.7729729	celebrando el
-1.074003	celebrar </s>
-1.074003	celebrar su
-0.7729729	centrado </s>
-0.7729729	central con
-0.7729729	centro de
-0.484868	centros de
-1.250094	cerca </s>
-1.250094	cerca crezca
-1.250094	cerca de
-0.7729729	cercanía que
-0.7729729	cero de
-0.7729729	cervélo es
-0.7729729	cesarlo tiene
-0.7729729	chevy dorado
-0.7729729	chicos </s>
-0.7729729	chiste gila
-0.7729729	ciclo de
-0.7729729	ciedes descubre
-0.7729729	ciencia en
-1.618071	ciento a
-0.3892415	ciento de
-1.618071	ciento por
-1.618071	ciento veintinueve
-0.7729729	científica y
-1.250094	cierta duda
-1.250094	cierta eh
-1.250094	cierta una
-0.7729729	cierto consenso
-0.882808	cinco horas
-0.882808	cinco minutos
-1.471943	cinco veintidós
-1.074003	cincuenta minutos
-1.074003	cincuenta por
-0.7729729	cine la
-0.7729729	cir es
-0.7729729	circular quiénes
-0.7729729	cita </s>
-1.183838	ciudad </s>
-1.772973	ciudad con
-1.772973	ciudad de
-1.772973	ciudad del
-1.183838	ciudad maravillosa
-1.772973	ciudad muchísimas
-1.772973	ciudad patrimonio
-1.772973	ciudad y
-0.7729729	ciudadanos </s>
-0.7729729	civil y
-0.6343608	claro </s>
-1.086928	claro es
-1.676063	claro que
-1.676063	claro siete
-1.676063	claro viniendo
-0.7729729	clase habéis
-0.7729729	clavijo y
-0.7729729	cliente que
-0.7729729	clima que
-0.7729729	cobijó </s>
-1.074003	coche de
-1.074003	coche que
-1.074003	cocina au
-1.074003	cocina de
-0.7729729	cocinada magra
-0.7729729	colaborador </s>
-0.7729729	colegio arboleda
-0.3222948	com </s>
-1.551124	com por
-1.551124	com ustedes
-0.484868	coma dos
-0.7729729	comentaba antes
-0.7729729	comentar que
-1.074003	comenzamos hace
-1.074003	comenzamos ya
-0.7729729	comenzar este
-0.7729729	comenzó a
-0.7729729	comienza el
-0.7729729	comienzo </s>
-0.7729729	comienzos espacio
-1.807087	como </s>
-2.396222	como bien
-2.396222	como cada
-2.396222	como como
-2.396222	como decía
-1.03704	como digo
-2.396222	como es
-2.396222	como ese
-2.396222	como este
-2.396222	como han
-2.396222	como hundía
-1.807087	como la
-2.396222	como lo
-1.807087	como los
-2.396222	como no
-2.396222	como nosotros
-2.396222	como para
-2.396222	como país
-2.396222	como poder
-2.396222	como querellado
-2.396222	como se
-2.396222	como sea
-1.807087	como si
-2.396222	como sigan
-2.396222	como son
-2.396222	como su
-2.396222	como suplente
-2.396222	como sí
-2.396222	como te
-1.807087	como todo
-2.396222	como todos
-2.396222	como una
-2.396222	como yo
-0.7729729	comparte adrian
-0.7729729	compartirlo </s>
-0.7729729	compañeros de
-0.7729729	compañía la
-0.7729729	competentes la
-0.7729729	completo españa
-0.7729729	comprar un
-0.7729729	compras </s>
-0.7729729	compuesto de
-1.074003	comunidad </s>
-1.074003	comunidad emprendedora
-1.074003	común </s>
-1.074003	común a
-1.827291	con </s>
-2.416426	con anterioridad
-1.827291	con bbva
-2.416426	con boris
-2.416426	con buen
-2.416426	con carles
-2.416426	con descuentos
-0.8758036	con el
-2.416426	con ella
-2.416426	con ello
-2.416426	con españa
-2.416426	con este
-2.416426	con esto
-2.416426	con hasta
-2.416426	con hoy
-1.187596	con la
-2.416426	con lo
-2.416426	con macarena
-1.827291	con nacho
-2.416426	con nueve
-2.416426	con ofertas
-2.416426	con sus
-2.416426	con teruel
-2.416426	con todos
-1.187596	con toni
-2.416426	con una
-2.416426	con ustedes
-2.416426	con valencia
-2.416426	con vodafone
-0.484868	concejal de
-0.7729729	concejales de
-0.7729729	concepción le
-0.7729729	concreto </s>
-0.7729729	conde de
-0.7729729	condiciones en
-0.7729729	conecta con
-1.250094	conexión </s>
-1.250094	conexión de
-1.250094	conexión en
-1.250094	confederación española
-1.250094	confederación hidrográfica
-1.250094	confederación todas
-1.250094	confianza </s>
-1.250094	confianza como
-1.250094	confianza de
-1.074003	configuración legal
-1.074003	configuración política
-0.7729729	configuran también
-0.7729729	conformar su
-0.7729729	conforme avance
-1.375033	confundir con
-1.375033	confundir el
-1.375033	confundir la
-1.375033	confundir ponéis
-0.5855362	congreso de
-0.7726635	congreso del
-1.814366	congreso el
-1.814366	congreso hablando
-1.814366	congreso hoy
-1.814366	congreso pero
-0.7729729	congresos </s>
-0.6609593	conjunto de
-1.250094	conjunto el
-0.7729729	conmigo cuando
-0.7729729	conoce si
-1.074003	conocer las
-1.074003	conocer mucho
-0.7729729	conocerlo </s>
-0.7729729	conocido como
-0.7729729	conozca </s>
-0.7729729	conozcan no
-0.7729729	conseguido un
-0.7729729	conseguir que
-0.7729729	conseguí </s>
-0.7729729	consejería de
-1.074003	consejo para
-1.074003	consejo que
-0.7729729	consenso de
-0.7729729	considera también
-0.7729729	consistorio ya
-1.074003	construye el
-1.074003	construye la
-0.7729729	consuelo al
-1.074003	consulta condiciones
-1.074003	consulta horarios
-0.7729729	consumo es
-0.7729729	contada por
-0.7729729	contemporánea </s>
-0.7729729	contemporáneos muy
-0.7729729	contenido en
-0.7729729	contestador automático
-0.7729729	contigo </s>
-0.7729729	continuar dando
-1.074003	contra </s>
-1.074003	contra la
-0.7729729	contrario de
-0.7729729	contribuye al
-0.7729729	controlar las
-0.7729729	conveniencia las
-0.7729729	conversar sobre
-0.7729729	convertido como
-0.7729729	convertirla buenas
-0.7729729	convierta en
-0.7729729	convirtiendo en
-0.7729729	convirtiéndolos en
-0.7729729	copan el
-0.7729729	correo electrónico
-0.07744904	corte inglés
-1.250094	cosa a
-1.250094	cosa de
-1.250094	cosa que
-1.551124	cosas más
-1.551124	cosas no
-1.551124	cosas pero
-0.9619893	cosas que
-1.551124	cosas son
-0.7729729	costa oeste
-0.7729729	costando llegar
-0.7729729	crea un
-0.7729729	creame </s>
-0.7729729	creando oportunidades
-0.7729729	creernos de
-0.0269537	creo que
-1.074003	crezca </s>
-1.074003	crezca informa
-0.7729729	cristina un
-0.7729729	criticas </s>
-0.7729729	cromático grafía
-0.7729729	cruce los
-1.250094	cuadrado </s>
-1.250094	cuadrado en
-1.250094	cuadrado y
-0.7729729	cual el
-0.7729729	cuales unos
-0.7729729	cualidad el
-0.7729729	cualquier colaborador
-1.852154	cuando alguien
-1.852154	cuando aparece
-1.852154	cuando cuando
-1.852154	cuando estábamos
-1.852154	cuando fue
-1.263019	cuando hablamos
-1.852154	cuando hicieron
-1.852154	cuando les
-1.852154	cuando llegó
-1.852154	cuando me
-1.852154	cuando ocurra
-0.7729729	cuanto más
-0.6609593	cuarenta por
-1.250094	cuarenta y
-0.484868	cuatro días
-0.7729729	cuba en
-1.375033	cuenta </s>
-1.375033	cuenta de
-1.375033	cuenta descubres
-1.375033	cuenta solas
-0.7729729	cuentas de
-0.7729729	cuento otra
-1.074003	cuestiones que
-1.074003	cuestiones un
-0.7729729	cueto el
-0.7729729	cultivo de
-1.074003	cultura hicimos
-1.074003	cultura música
-0.7729729	cultural del
-0.7729729	cumplir todo
-0.7729729	cura con
-0.7729729	curiosamente no
-0.7729729	cursos que
-0.7729729	cuyo nombre
-0.484868	cuáles son
-0.7729729	cuántas horas
-0.484868	cuéntanos lo
-0.7729729	cátedra agromán
-0.7729729	cínicos </s>
-0.7729729	cómo uno
-1.375033	da consuelo
-1.375033	da la
-1.375033	da ni
-1.375033	da oportunidades
-1.074003	dado cuenta
-1.074003	dado libremente
-0.7729729	damas dieron
-0.7729729	dando la
-0.7729729	dar las
-1.074003	darte cuenta
-1.074003	darte un
-0.7729729	darías cuenta
-1.250094	dato </s>
-1.250094	dato nueve
-1.250094	dato reivindicar
-0.7729729	david sañudo
-1.933618	de </s>
-3.292801	de a
-3.292801	de acuerdo
-3.292801	de agosto
-3.292801	de agua
-3.292801	de aguas
-3.292801	de alguna
-3.292801	de alimentos
-3.292801	de amejoramiento
-2.063972	de amor
-3.292801	de aquí
-3.292801	de aragón
-3.292801	de astrofísica
-3.292801	de autovía
-3.292801	de avellana
-3.292801	de aviones
-3.292801	de bien
-3.292801	de biomasa
-3.292801	de buena
-3.292801	de cada
-3.292801	de calidad
-3.292801	de capitales
-3.292801	de carmena
-3.292801	de ciedes
-3.292801	de coche
-3.292801	de cocina
-3.292801	de como
-3.292801	de confianza
-3.292801	de conformar
-3.292801	de congresos
-3.292801	de consumo
-3.292801	de creernos
-3.292801	de cómo
-2.251099	de de
-3.292801	de decir
-3.292801	de defensa
-3.292801	de deporte
-3.292801	de depuradora
-3.292801	de desarrollo
-2.063972	de descuento
-3.292801	de desea
-3.292801	de diciembre
-3.292801	de disfrutamos
-3.292801	de don
-2.703666	de donde
-2.251099	de dos
-3.292801	de douglas
-3.292801	de dónde
-3.292801	de egipto
-3.292801	de el
-3.292801	de elabora
-3.292801	de elección
-2.703666	de ellas
-3.292801	de empezar
-3.292801	de enero
-3.292801	de es
-3.292801	de esa
-2.703666	de eso
-1.933618	de españa
-3.292801	de esta
-3.292801	de establecer
-3.292801	de estar
-2.703666	de estas
-2.703666	de este
-3.292801	de europa
-3.292801	de expertos
-3.292801	de familia
-3.292801	de feria
-3.292801	de ferrocarril
-3.292801	de festejar
-3.292801	de fuera
-2.251099	de gente
-3.292801	de getafe
-2.703666	de gibraltar
-3.292801	de girasol
-3.292801	de gotemburgo
-3.292801	de grabación
-3.292801	de hablar
-3.292801	de hace
-3.292801	de hasta
-3.292801	de historia
-3.292801	de hombre
-3.292801	de ikea
-3.292801	de inmuno
-3.292801	de intolerancias
-3.292801	de jen
-3.292801	de juncos
-3.292801	de jurar
-3.292801	de jóvenes
-0.8490568	de la
-3.292801	de labores
-1.347907	de las
-3.292801	de lleida
-2.703666	de lo
-3.292801	de londres
-1.484132	de los
-2.703666	de lunes
-2.063972	de madrid
-3.292801	de manifiesto
-3.292801	de manitas
-3.292801	de mantener
-3.292801	de marcas
-3.292801	de mata
-3.292801	de matrimonio
-3.292801	de medio
-2.251099	de mi
-3.292801	de militancia
-3.292801	de mirar
-2.703666	de moda
-3.292801	de mostrar
-3.292801	de mujer
-3.292801	de métodos
-3.292801	de música
-3.292801	de nada
-3.292801	de nadie
-2.251099	de navidad
-3.292801	de noche
-3.292801	de nosotros
-2.063972	de noviembre
-2.063972	de nuestra
-2.703666	de nuestro
-2.703666	de nuestros
-3.292801	de nuevas
-3.292801	de once
-2.703666	de oportunidades
-3.292801	de otra
-3.292801	de otro
-3.292801	de partida
-3.292801	de paso
-3.292801	de pensiones
-3.292801	de perales
-3.292801	de pintura
-3.292801	de plasmar
-3.292801	de población
-3.292801	de principios
-3.292801	de pueblo
-2.063972	de que
-2.703666	de quién
-2.703666	de qué
-3.292801	de reflexión
-3.292801	de repoblación
-3.292801	de saber
-3.292801	de sabios
-3.292801	de sabores
-3.292801	de saludar
-1.833492	de semana
-2.703666	de ser
-3.292801	de sesiones
-3.292801	de siendo
-3.292801	de sobra
-3.292801	de somos
-3.292801	de son
-3.292801	de sostenibilidad
-2.251099	de su
-3.292801	de superviviencia
-3.292801	de sus
-3.292801	de talento
-3.292801	de tecnologías
-1.624591	de teruel
-2.703666	de todo
-2.703666	de todos
-3.292801	de tu
-2.063972	de un
-3.292801	de una
-3.292801	de urbanismo
-2.251099	de vacuno
-3.292801	de valencia
-3.292801	de veinte
-1.933618	de verdad
-3.292801	de versiones
-3.292801	de veterinaria
-2.251099	de vida
-2.703666	de vista
-3.292801	de vivir
-3.292801	de yo
-2.251099	de zaragoza
-1.074003	debate el
-1.074003	debate un
-1.471943	debe actuar
-0.4302408	debe ser
-1.471943	debe tener
-1.074003	deben ponerse
-1.074003	deben ustedes
-0.7729729	deberá hemos
-0.7729729	debería ser
-0.7729729	decidido unir
-0.7729729	decidir los
-0.7729729	decimoctava de
-0.7729729	decimosexto premio
-1.727215	decir además
-1.727215	decir alguna
-1.727215	decir antes
-1.727215	decir bueno
-1.727215	decir desde
-0.6855133	decir que
-1.727215	decir todos
-0.7729729	decirnos que
-0.7729729	declarando un
-1.074003	declarar como
-1.074003	declarar en
-1.471943	decía antes
-0.882808	decía el
-1.471943	decía manolo
-1.471943	decía te
-0.7729729	decían los
-1.074003	dedicado a
-1.074003	dedicado al
-0.7729729	defender el
-0.7729729	defensa a
-0.7729729	defiende la
-0.7729729	definir </s>
-0.7729729	definitiva </s>
-0.7729729	dejadez de
-1.074003	dejar claro
-1.074003	dejar que
-0.7729729	dejarán decir
-0.7729729	dejen los
-0.7729729	dejes escapar
-1.074003	dejó claro
-1.074003	dejó escrito
-0.9047281	del amor
-2.364038	del asesinato
-2.364038	del ayuntamiento
-2.364038	del bienestar
-2.364038	del black
-2.364038	del cervélo
-2.364038	del corte
-2.364038	del desinterés
-2.364038	del dolor
-2.364038	del embarazo
-2.364038	del emprendimiento
-2.364038	del feto
-2.364038	del fin
-2.364038	del gobierno
-2.364038	del mundo
-2.364038	del parlamento
-2.364038	del país
-2.364038	del perro
-2.364038	del peñón
-2.364038	del proyecto
-2.364038	del pueblo
-2.364038	del reino
-2.364038	del río
-1.774903	del siglo
-1.774903	del sábado
-2.364038	del tajo
-2.364038	del territorio
-2.364038	del tren
-2.364038	del turrón
-2.364038	del viernes
-2.364038	del vih
-2.364038	del único
-0.7729729	delito contra
-0.7729729	demasiado ahí
-0.7729729	demencia </s>
-0.7729729	democrática </s>
-0.7729729	democráticas </s>
-0.7729729	demostrar en
-0.7729729	demuestran ustedes
-0.7729729	den más
-1.074003	densidad de
-1.074003	densidad lo
-0.7729729	denuncia sirve
-0.7729729	denunciada </s>
-0.7729729	denuncian en
-0.7729729	departamento de
-1.250094	depende a
-1.250094	depende de
-1.250094	depende también
-0.7729729	dependiendo de
-0.7729729	deporte al
-0.7729729	deportes la
-0.7729729	depuradora que
-0.7729729	desapareciendo según
-0.7729729	desarmado hemos
-1.074003	desarrollo del
-1.074003	desarrollo y
-0.7729729	desarrollos políticos
-0.7729729	desatada ahí
-0.7729729	descendientes indignados
-0.7729729	descubra su
-1.250094	descubre la
-1.250094	descubre las
-1.250094	descubre más
-0.7729729	descubres que
-1.375033	descuento adicional
-1.375033	descuento el
-0.785898	descuento en
-0.7729729	descuentos que
-1.886916	desde </s>
-1.886916	desde cuba
-0.8452142	desde el
-1.886916	desde hace
-1.886916	desde la
-1.886916	desde londres
-1.886916	desde otro
-1.886916	desde podemos
-1.886916	desde que
-1.886916	desde su
-1.886916	desde teruel
-0.7729729	desea </s>
-0.7729729	desearía haber
-0.785898	deseo </s>
-1.375033	deseo es
-1.375033	deseo pero
-1.250094	deseos </s>
-0.6609593	deseos producen
-0.7729729	desinterés de
-0.7729729	desperdiciar cada
-0.7729729	despoblada que
-1.250094	después </s>
-1.250094	después porque
-1.250094	después ya
-0.7729729	desventaja nosotros
-0.7729729	detección de
-0.7729729	detectar trazas
-0.7729729	detenido a
-0.7729729	detrás del
-0.7729729	dgt en
-0.7729729	di la
-1.074003	diamante </s>
-1.074003	diamante diamante
-0.7729729	diario de
-1.471943	dice </s>
-1.471943	dice comenzamos
-1.471943	dice el
-0.882808	dice que
-1.074003	dices </s>
-1.074003	dices porno
-1.250094	dicho </s>
-1.250094	dicho al
-1.250094	dicho y
-0.7729729	diciembre </s>
-0.7729729	diciendo </s>
-0.7729729	dicotomía cir
-1.074003	dieciocho tengamos
-1.074003	dieciocho tevez
-0.6609593	dieciséis </s>
-1.250094	dieciséis sesenta
-0.7729729	dieron la
-0.785898	diez </s>
-1.375033	diez mil
-1.375033	diez y
-0.7729729	diferencia y
-0.7729729	diferencias en
-0.7729729	dificultar las
-1.074003	difícil hay
-1.074003	difícil llegar
-0.7729729	digamos que
-0.7729729	digital </s>
-1.676063	digo a
-1.676063	digo acostumbrados
-1.676063	digo en
-1.676063	digo más
-0.6343608	digo que
-1.676063	digo son
-0.7729729	dijeron que
-0.7729729	dijo que
-0.7729729	diligencia llegábamos
-0.7729729	diputados por
-1.074003	dirección hoy
-1.074003	dirección zaragoza
-0.7729729	dirige la
-0.7729729	diría pues
-0.7729729	discute </s>
-1.074003	discutido dependiendo
-1.074003	discutido o
-0.7729729	disfrutamos esta
-0.6609593	disfrutar del
-1.250094	disfrutar sabiendo
-0.7729729	distancia del
-1.074003	distintas reflexiones
-1.074003	distintas salsas
-0.7729729	divorcian normalmente
-0.7729729	doce minutos
-0.7729729	dolor </s>
-0.484868	domingo </s>
-0.7729729	don carlos
-1.471943	donde </s>
-1.471943	donde de
-1.471943	donde estamos
-1.471943	donde sueco
-1.471943	donde también
-0.7729729	dorado </s>
-1.074003	dormir a
-1.074003	dormir poco
-2.003422	dos </s>
-2.003422	dos de
-1.414287	dos en
-2.003422	dos españas
-2.003422	dos experiencias
-2.003422	dos gestoras
-2.003422	dos habitantes
-2.003422	dos horas
-0.9617198	dos mil
-2.003422	dos productos
-2.003422	dos quieres
-2.003422	dos trenes
-2.003422	dos una
-2.003422	dos velocidades
-1.074003	douglas </s>
-1.074003	douglas si
-0.5094221	duda </s>
-1.551124	duda alguna
-1.551124	duda de
-1.551124	duda lo
-0.7729729	dudar es
-0.7729729	dude cuántas
-0.7729729	dudosa voy
-0.7729729	dueño de
-1.074003	dura dos
-1.074003	dura ya
-1.028936	durante el
-1.618071	durante este
-1.618071	durante la
-1.618071	durante sólo
-1.618071	durante toda
-1.618071	durante un
-1.074003	duro ha
-1.074003	duro para
-0.7729729	dándole las
-0.7729729	dátolo amigo
-0.7729729	décimos que
-1.086928	día </s>
-1.676063	día cuenta
-1.086928	día el
-1.676063	día habrá
-1.676063	día ocurre
-1.676063	día vamos
-0.6580869	días </s>
-1.886916	días a
-1.886916	días al
-1.886916	días cultura
-1.886916	días hola
-1.886916	días javier
-1.886916	días me
-1.886916	días muy
-1.886916	días son
-1.886916	días viernes
-1.074003	dónde va
-1.074003	dónde viene
-0.7729729	e incluso
-0.7729729	edad de
-0.7729729	edificantes los
-0.7729729	egipto cuyo
-0.810452	eh </s>
-1.852154	eh alcaldesa
-1.852154	eh es
-1.852154	eh estas
-1.852154	eh hola
-1.852154	eh la
-1.852154	eh no
-1.852154	eh que
-1.852154	eh un
-1.852154	eh yo
-0.6343608	ejemplo </s>
-1.676063	ejemplo desde
-1.676063	ejemplo el
-1.676063	ejemplo escuche
-1.676063	ejemplo la
-1.676063	ejemplo para
-0.7729729	ejercen </s>
-2.462592	el </s>
-3.051727	el acuerdo
-3.051727	el aderezo
-3.051727	el agua
-0.9391701	el amor
-3.051727	el anuncio
-3.051727	el arado
-3.051727	el asesoramiento
-3.051727	el ayuntamiento
-2.462592	el año
-3.051727	el barrio
-1.822897	el black
-3.051727	el brexit
-3.051727	el calendario
-3.051727	el camino
-2.462592	el campo
-3.051727	el carácter
-2.462592	el catálogo
-3.051727	el centro
-3.051727	el coche
-3.051727	el comenzó
-3.051727	el conde
-1.692544	el congreso
-2.010024	el conjunto
-3.051727	el consistorio
-1.692544	el corte
-3.051727	el cruce
-3.051727	el cuento
-3.051727	el dato
-3.051727	el de
-3.051727	el debate
-3.051727	el departamento
-3.051727	el desarmado
-2.462592	el deseo
-3.051727	el diario
-3.051727	el dueño
-3.051727	el día
-2.010024	el el
-3.051727	el embarazo
-3.051727	el en
-3.051727	el encanto
-3.051727	el espacio
-3.051727	el exceso
-3.051727	el extranjero
-3.051727	el ferrocarril
-3.051727	el fin
-3.051727	el futuro
-3.051727	el giro
-3.051727	el gordo
-3.051727	el gran
-3.051727	el guiso
-3.051727	el hogar
-3.051727	el información
-3.051727	el interior
-3.051727	el interés
-3.051727	el jamones
-3.051727	el julio
-3.051727	el lunes
-2.462592	el matrimonio
-3.051727	el mayor
-2.010024	el medio
-2.462592	el mejor
-3.051727	el metro
-3.051727	el ministro
-3.051727	el mismo
-3.051727	el miércoles
-3.051727	el momento
-1.822897	el mundo
-3.051727	el nombre
-3.051727	el núcleo
-3.051727	el objetivo
-3.051727	el odio
-3.051727	el ojo
-3.051727	el ordenador
-3.051727	el outlet
-3.051727	el pabellón
-3.051727	el pairs
-3.051727	el partido
-3.051727	el peor
-3.051727	el placer
-3.051727	el plato
-3.051727	el potencial
-3.051727	el problema
-2.010024	el programa
-3.051727	el proyecto
-3.051727	el próximo
-2.462592	el punto
-1.285024	el que
-3.051727	el quién
-3.051727	el raikkonen
-3.051727	el reino
-3.051727	el resentimiento
-2.010024	el resto
-2.462592	el salario
-3.051727	el seguro
-3.051727	el setenta
-3.051727	el señor
-2.462592	el siglo
-3.051727	el siguiente
-3.051727	el sueco
-3.051727	el sí
-3.051727	el terrorismo
-3.051727	el tiempo
-3.051727	el top
-3.051727	el tractor
-3.051727	el tranquilo
-3.051727	el trazado
-1.692544	el tren
-2.462592	el tres
-3.051727	el turismo
-2.462592	el veinticinco
-3.051727	el veintiuno
-3.051727	el viernes
-3.051727	el yang
-3.051727	el yin
-2.010024	el último
-0.7729729	elabora más
-0.7729729	elección de
-0.7729729	electrónica el
-0.7729729	electrónico cuéntanos
-0.7729729	elegida por
-0.7729729	elegir teruel
-0.7729729	elemental </s>
-0.7729729	elementales que
-0.7729729	elevadas como
-0.7729729	elige </s>
-1.074003	ella </s>
-1.074003	ella acero
-1.074003	ellas </s>
-1.074003	ellas es
-0.7729729	ello </s>
-0.7729729	ellos creame
-0.7729729	embarazada tu
-1.074003	embarazo </s>
-1.074003	embarazo o
-1.250094	emma durante
-1.250094	emma muy
-1.250094	emma que
-0.7729729	emociona volvernos
-1.471943	emociones durante
-1.471943	emociones elementales
-1.471943	emociones no
-1.471943	emociones quizás
-1.471943	emociones y
-0.7729729	empezado aquí
-1.375033	empezar dándole
-1.375033	empezar hablando
-1.375033	empezar pero
-1.375033	empezar vamos
-0.7729729	empleo </s>
-0.7729729	emprendedora </s>
-0.7729729	emprendimiento </s>
-1.074003	empresa en
-1.074003	empresa hacerlo
-0.7729729	empresario </s>
-0.7729729	empresarios </s>
-0.7729729	empresas y
-1.745541	en </s>
-2.97437	en a
-2.97437	en abismos
-2.97437	en alemania
-2.97437	en algo
-2.97437	en algunos
-2.97437	en alimentos
-2.97437	en aquella
-2.97437	en ave
-2.97437	en black
-2.97437	en breve
-2.97437	en bueno
-2.385235	en cadena
-1.745541	en canarias
-2.97437	en concreto
-2.97437	en contra
-2.97437	en dos
-2.97437	en día
-0.7564683	en el
-2.385235	en en
-2.97437	en enemigo
-2.97437	en enero
-1.615187	en ese
-2.97437	en eso
-1.932668	en españa
-2.97437	en esta
-2.97437	en estados
-2.97437	en estas
-1.745541	en este
-2.385235	en europa
-2.97437	en filosofía
-2.97437	en fin
-2.385235	en finlandia
-2.97437	en google
-2.97437	en grasa
-2.97437	en hierro
-2.385235	en hoy
-2.97437	en internet
-1.092269	en la
-2.385235	en las
-2.97437	en lo
-2.97437	en londres
-1.615187	en los
-2.97437	en lucha
-2.97437	en mapfre
-2.97437	en mijas
-2.97437	en mil
-2.97437	en muchas
-2.97437	en málaga
-2.97437	en mí
-2.97437	en nombre
-2.97437	en nuestra
-2.97437	en nutrición
-2.97437	en ocio
-2.97437	en para
-2.97437	en parte
-2.97437	en pleno
-2.97437	en pocas
-2.385235	en principio
-2.97437	en prisión
-2.97437	en proteínas
-2.97437	en que
-2.97437	en recordar
-2.97437	en seguros
-2.97437	en sitios
-2.385235	en su
-2.97437	en suecia
-2.97437	en sueco
-2.97437	en sus
-2.385235	en tener
-1.515061	en teruel
-2.97437	en test
-2.97437	en todo
-1.745541	en un
-1.932668	en una
-2.97437	en valencia
-2.97437	en vano
-2.97437	en vez
-2.97437	en xxii
-2.97437	en zaragoza
-0.7729729	enamoras y
-0.7729729	encanto del
-0.7729729	encender la
-0.7729729	encima de
-0.7729729	encontrar a
-1.074003	enemigo de
-1.074003	enemigo el
-1.074003	enero a
-1.074003	enero por
-0.7729729	enfadado gracias
-0.7729729	enfermedad que
-0.7729729	enfermeras me
-0.7729729	enfrentar incluso
-1.074003	enorme </s>
-1.074003	enorme maleta
-0.7729729	enseñaron </s>
-0.7729729	entender porqué
-0.7729729	entiende es
-0.484868	entiendo que
-1.074003	entonces la
-1.074003	entonces sólo
-1.074003	entrar </s>
-1.074003	entrar a
-0.7729729	entrara </s>
-1.727215	entre </s>
-1.727215	entre el
-1.138081	entre la
-1.727215	entre las
-1.727215	entre líneas
-1.727215	entre partes
-1.727215	entre que
-1.727215	entre zaragoza
-0.7729729	entrega la
-0.7729729	enviado iñaki
-0.7729729	equiparar el
-0.7729729	equivocan </s>
-1.250094	era digital
-1.250094	era igual
-1.250094	era para
-0.7729729	eran los
-1.074003	eres peliculero
-1.074003	eres pérez
-1.38157	es </s>
-2.922192	es al
-2.922192	es algo
-2.333057	es así
-2.922192	es autor
-2.922192	es bbva
-2.922192	es bestia
-1.563009	es bueno
-2.922192	es cada
-2.922192	es capaz
-2.922192	es casualidad
-2.922192	es claro
-2.922192	es compartirlo
-2.922192	es cultivo
-2.922192	es da
-1.88049	es de
-2.333057	es decir
-2.922192	es difícil
-2.922192	es dormir
-2.922192	es eh
-1.563009	es el
-1.88049	es es
-2.922192	es eso
-1.88049	es esto
-2.922192	es estoy
-2.922192	es evidente
-2.922192	es fundamental
-2.922192	es hablar
-2.922192	es había
-2.922192	es historiador
-2.922192	es ikea
-1.88049	es importante
-2.922192	es investigador
-2.922192	es justamente
-1.15549	es la
-2.922192	es lamentable
-1.88049	es lo
-2.922192	es maravillosa
-2.922192	es maravilloso
-2.922192	es mucho
-1.563009	es muy
-2.922192	es nombre
-2.333057	es otra
-2.922192	es otro
-2.922192	es para
-2.922192	es política
-2.922192	es porque
-2.333057	es posible
-1.20195	es que
-2.922192	es regalarle
-2.922192	es remite
-2.922192	es si
-2.922192	es teruel
-2.922192	es tiempo
-2.922192	es todo
-2.922192	es totalmente
-2.922192	es tratamos
-1.20195	es un
-1.253982	es una
-2.922192	es uno
-2.922192	es valencia
-2.922192	es veintidós
-2.922192	es veintitrés
-1.313107	es verdad
-2.922192	es yo
-2.922192	es éste
-1.618071	esa duda
-1.618071	esa eh
-1.028936	esa es
-1.618071	esa ese
-1.618071	esa sus
-1.618071	esa velocidad
-1.074003	esas infraestructuras
-1.074003	esas primarias
-0.7729729	escapar black
-0.7729729	escriben otros
-0.7729729	escribir </s>
-1.074003	escrito en
-1.074003	escrito es
-0.7729729	escritura no
-1.074003	escuchado en
-1.074003	escuchado esta
-0.7729729	escuchan desde
-1.250094	escuchando a
-1.250094	escuchando la
-1.250094	escuchando que
-0.785898	escuchar a
-1.375033	escuchar desde
-1.375033	escuchar lo
-0.7729729	escuche la
-0.7729729	escuchen laboral
-1.977093	ese amigo
-1.977093	ese congreso
-1.977093	ese dato
-1.977093	ese día
-1.977093	ese en
-1.977093	ese espectáculo
-1.977093	ese momento
-1.977093	ese partido
-1.977093	ese sabor
-1.977093	ese servicios
-1.977093	ese siente
-1.977093	ese sonido
-1.977093	ese tramo
-1.387958	ese triángulo
-1.977093	ese turismo
-0.7729729	esfera de
-0.7729729	esfuerzo el
-1.564049	eso </s>
-2.153184	eso de
-0.6938748	eso es
-2.153184	eso eso
-2.153184	eso están
-2.153184	eso hay
-2.153184	eso hemos
-2.153184	eso muy
-2.153184	eso no
-2.153184	eso nos
-2.153184	eso que
-2.153184	eso se
-1.564049	eso sí
-1.564049	eso también
-2.153184	eso tres
-2.153184	eso una
-0.7729729	esos </s>
-1.250094	espacio </s>
-1.250094	espacio de
-1.250094	espacio ofrecido
-0.7729729	espacios de
-1.462592	españa </s>
-2.051727	españa como
-2.051727	españa dato
-1.462592	españa de
-2.051727	españa despoblada
-2.051727	españa dos
-1.462592	españa en
-2.051727	españa fíjate
-2.051727	españa no
-2.051727	españa pero
-2.051727	españa que
-2.051727	españa respecto
-2.051727	españa se
-2.051727	españa sino
-2.051727	españa superpoblada
-2.051727	españa tiene
-0.7729729	españas del
-0.7729729	español de
-0.7729729	española de
-0.7729729	españoles se
-0.7729729	especiales por
-0.7729729	especialmente agradables
-0.7729729	espectacular </s>
-1.074003	espectaculares a
-1.074003	espectaculares para
-0.7729729	espectáculo porque
-0.7729729	específico oí
-0.7729729	esperar a
-2.095192	esta </s>
-2.095192	esta ciudad
-2.095192	esta cosa
-2.095192	esta en
-2.095192	esta esta
-2.095192	esta frase
-2.095192	esta hora
-0.7360095	esta mañana
-2.095192	esta noche
-2.095192	esta oferta
-2.095192	esta relación
-0.8663628	esta semana
-2.095192	esta tarde
-2.095192	esta tasa
-0.7729729	estaba es
-0.7729729	establecen las
-0.7729729	establecer un
-0.7729729	estacionamiento de
-0.7729729	estaciones </s>
-0.7729729	estado en
-0.7729729	estados unidos
